199 300
171 -0.16616379 0.34249726 -0.19088705 0.24230416 -0.35247326 0.2766858 1.1220073 0.08223642 -0.31488532 -0.45207122 -0.75630504 0.22626846 0.032731354 0.15937327 0.17984812 -1.1364664 0.05478311 0.29118738 -0.3941014 0.49816546 -0.26520315 0.41116855 0.6128146 -0.048262116 0.83632636 -0.9480159 -0.10867486 0.31243885 0.09435204 -0.5756318 0.102446474 0.22566561 -1.0115846 -0.45277432 -0.14715716 0.16902551 -0.27735177 -0.31981313 0.17918012 -0.23546284 -0.39002106 0.21243452 -0.42063424 -0.005375074 -0.93043566 -0.16357827 -0.00853817 0.6480525 0.23496786 -0.3437884 0.120834135 0.58867234 -0.292005 -0.356555 0.21360336 0.22647883 -0.7785741 -0.23849593 0.21975802 -0.26594684 -0.6414619 -0.6948813 -0.21192302 -0.40843385 0.22896986 -0.48285347 -0.35688493 -0.26754624 0.35316354 -0.32554808 -0.0814946 -0.36918598 0.41493332 -0.24253273 -0.38474488 0.07758971 -0.18899462 0.48707628 0.08404379 0.72727495 0.0015041542 -0.7158481 0.24695499 0.3084859 0.11185313 0.41551194 0.19293708 0.1979678 -0.09955367 -0.12706411 -0.18476166 0.7157813 -0.5254267 -0.06293237 -0.21773629 -0.3316191 -0.15938911 -0.4038102 0.15416712 0.03343975 0.7220148 -0.063500635 -0.3985368 0.46191022 0.6010544 0.37955412 -0.5626263 0.12021279 -0.27404055 -0.21939413 0.13168377 -0.11846652 -0.35506535 -0.3970066 -0.042778604 -0.45245504 -0.51618534 0.15102087 0.8123426 0.028861096 -0.27414355 -0.4505449 -0.30135766 0.54594046 0.2229279 -0.2929495 -0.38245976 0.044975363 0.20727909 -0.08596278 -0.46435767 0.26686344 0.04511759 -0.53960025 0.33072403 0.07999785 0.03945136 -0.088418216 -0.38982314 0.95720494 0.2477993 0.45614696 0.27017066 -0.0022086073 -0.11178119 0.16131316 0.035486996 0.17956707 0.41803464 0.08115309 0.24321814 -0.05992097 -0.12826939 0.11380658 0.21947284 0.6084104 0.5222459 0.29454562 -0.57990557 -0.21975283 -0.4028446 -0.6313443 0.113330446 0.3127862 0.56250465 0.39381698 0.16277558 0.58923215 -0.04964835 -0.3625979 -0.29203913 0.07153097 -0.13534069 0.5488598 0.3059512 0.54058665 -0.7838719 0.47946855 -0.035237104 -0.34659392 0.16329977 0.537652 -0.8291888 0.060647808 -0.115764044 0.47921357 -0.08797881 0.29944992 0.38705084 -0.067069076 -0.2907913 -0.7294044 -0.3457667 0.34530902 -0.3621175 0.28449306 0.262412 -0.014409113 -0.015855476 -0.054075815 -0.025266608 0.53661907 0.3438991 -0.29428175 0.19986306 -0.51385576 0.4311299 0.46273926 -0.20331933 -0.4056099 -0.40055695 0.13288894 0.19385904 -0.25325987 -1.0037979 0.14038391 0.25657582 0.44584084 0.3800785 -0.22043821 0.6393679 0.9421136 -0.044932604 -0.09122947 0.16345146 -0.5431316 -0.32471752 -0.12417657 0.29967153 -0.18561609 -0.18370667 0.23025933 0.84532416 0.01971107 0.48583415 -1.2452701 0.030420566 -0.6228418 -0.09569768 -0.030036977 -0.45335904 -0.8191429 0.15299799 -0.8608449 -0.21720703 0.037539896 0.36746836 0.49134547 0.13882798 -0.9274616 0.0142426295 0.12909687 -0.2415734 -0.6534468 0.37594903 0.4345062 0.1493131 -0.26223308 -0.3748235 -0.8504088 0.3261491 0.35718206 0.56125575 -0.24328665 -0.08116138 -0.22514251 -0.033167616 -0.4125289 -0.10496868 0.10043903 0.48424616 -0.32196283 0.53865826 -0.54856473 -0.11875002 -0.5713803 -0.99628633 0.8678512 0.070679404 0.19339554 0.20054436 0.29091436 -0.7420836 -0.0575895 -0.30952442 0.076483525 1.0497044 -0.5002794 -0.24060224 -0.09657764 0.23458359 0.32374322 0.120537385 -0.44035736 -0.6286032 -0.1861505 -0.74654585 -0.35161513 0.34751266 0.21225612
36 0.2621028 0.0054418477 0.8461726 0.37525487 -0.65388143 -0.048591495 0.017364293 -0.5903582 -0.73030657 0.43028647 0.68311304 0.5810975 0.60595953 0.0724716 -0.60304177 -0.2484104 0.201655 0.09381669 0.2151051 -0.19095787 0.5909659 1.0675665 0.7552279 0.2927797 0.60601884 -0.0734387 0.0272063 0.84866625 0.15353985 0.0060931747 -0.2789636 0.39341763 -0.14164546 -0.9373484 -0.2805344 -0.49053943 0.44217336 0.1403956 -0.94942725 -0.56531745 -0.18709947 -0.13607864 -0.6033979 0.75288516 -1.558111 -0.35677418 -0.039656978 0.056406867 -0.12549374 0.049746346 -0.4842835 -0.37956017 -0.091232106 -0.6241343 0.5889763 -0.28938818 -0.1862981 -0.2321712 0.727393 0.3227342 -0.24612609 -0.9465248 -0.23254137 0.64069563 0.20092951 0.088022955 -0.38846585 -0.32279015 0.8800035 -0.11467183 0.11698636 -0.54849404 0.48303875 0.06449907 -0.25006947 -0.18466048 0.17585862 0.47612286 -0.25626922 0.17711237 0.3388739 0.117411226 -0.25798404 -0.4066674 -0.27555618 0.67842674 -1.1542317 0.6346211 0.5869769 -0.95381683 -0.24142285 0.46001065 -0.394025 -0.33557293 0.21700792 -0.24540903 -0.53319776 -0.13382815 -0.4191403 0.5486662 0.24615003 0.0016503358 0.017640986 0.8440597 0.05109558 0.3977058 -1.1107574 -0.6087246 -0.1783869 0.3618624 0.15201832 -1.0554651 0.3835323 0.15348205 0.15881504 -0.45942122 -0.15679443 0.55802256 0.12776333 0.29309255 -0.65190464 -0.8028358 0.30084354 0.42912796 0.10400598 -0.88473403 -0.12453112 0.49719116 -0.4423514 -0.7810118 0.52989167 0.39060786 0.6790788 -0.8201982 -0.35972685 0.04277475 0.70494586 0.47170562 4.987257e-05 -0.27610657 0.353744 0.13495746 0.10520691 -0.4424937 -0.7690596 -0.4998636 -0.18670069 -0.48574346 0.42671177 0.0020496538 0.78918177 -0.0029541925 0.2708228 -0.44647688 -0.8325665 1.0657727 0.543539 -0.93921894 -0.29738793 0.29809052 -0.24896207 -0.16502234 0.8430618 0.18212703 -0.14065291 0.24121155 0.38859546 -0.41153786 -0.38727558 0.5448246 0.050184075 0.6099978 0.2741346 0.2865628 -0.24367611 0.40463963 -0.30928785 0.43510917 -0.5148615 0.23860045 0.6054027 0.3161562 -0.2846075 0.08000376 -0.35088548 -0.2055261 0.7444391 -0.33979502 0.104063146 -0.56761116 -0.34778604 -0.13771868 -0.21903217 0.5821256 -0.44394237 -0.8431177 0.16146205 -0.23487563 -0.39856532 -0.39006957 0.41441265 0.3364094 0.6026971 0.09612014 0.26854593 0.19370767 -0.15814003 0.7457427 0.08231147 0.2792026 0.08753736 -0.6063419 -0.34742746 0.10951691 -0.034156602 0.39822006 0.62090456 -0.08084644 0.07644273 0.38925892 0.13983133 -0.27459815 -0.38184682 -0.24882628 0.44949204 -0.17242995 -0.3745091 0.3047134 -0.13271937 0.43264723 0.5501065 0.0756665 -0.1967524 0.5080414 0.27530143 -0.3493059 -0.57389766 0.6359461 0.28905904 0.12249669 -0.0116719855 -0.29243505 -0.31609613 -0.14333676 -0.1928049 -0.03536831 -0.12189965 -0.66560423 0.8098017 -0.025914887 0.78662723 -0.5914882 -0.7854409 0.13124153 0.071521595 0.0329842 0.11509887 0.122689545 0.8863967 0.80252415 0.7317233 0.7825987 -1.3442335 -0.42884788 0.24065763 -0.23310676 -0.52301496 -1.3402925 -0.6861305 -0.12076334 0.7791059 -0.31992465 0.112185985 -0.9622107 -0.3060919 -0.37096485 -0.69534504 0.21072109 -0.45003217 -0.5728605 0.05918096 0.80708563 -0.16987386 -0.29590827 -0.14374006 -0.46550104 -0.11995635 -0.47971582 0.10578634 0.40174675 -1.3003856 0.18239672 0.3126962 -0.4093976 0.4784049 -0.2102802 -0.030464856 -0.40880734 -0.2092801 0.4888126
18 0.33801112 -0.9016077 -2.6912956 0.80030286 -0.05221226 -0.113379665 1.3508264 -1.062451 0.37979403 0.6206134 -0.09486755 -0.07723752 -0.59946364 -0.35543996 0.41354433 -0.09652322 0.23303314 0.25827762 -0.105615035 1.0342448 0.07607465 -1.0560201 -0.5099502 -0.3262239 0.4771356 -1.1324404 -0.33545822 0.833212 1.3247815 -0.1112002 0.39920202 -0.2907877 -0.5731358 -0.22811136 -0.6640905 1.1105925 -0.30638805 -1.0707215 -0.21352544 0.47343186 0.006728566 1.1472247 -1.2464731 0.1938967 0.057049092 -0.23907153 -0.17112266 -0.062631756 0.48247445 0.030536138 0.0006213638 -0.16976984 0.896542 -1.3694205 1.5459318 -0.2164311 0.5623092 0.5563208 -0.21159796 -0.80314827 -0.18155831 -0.22186935 -0.4075315 -1.1436458 0.6711565 -0.31161922 -0.4907246 -0.6855393 -1.7265719 -0.566503 0.013589171 -0.62575483 0.18628636 -0.8454681 -0.0150224045 -0.048798934 -0.91396266 0.5768163 0.17025694 0.30846375 -0.24692504 -1.0814317 -0.15240173 -0.30146092 0.85913086 0.018170323 0.11840364 -0.77947253 -0.1754329 -1.0706066 -0.04899184 -0.045370627 0.87041885 0.30177003 0.2404958 -1.58604 -0.5446487 -1.113401 -0.51791877 -0.32093146 1.5346138 0.49634588 -0.11712263 0.79693896 0.76444596 0.10595798 -0.6779229 -0.30914655 0.8839293 -1.1483753 0.40316105 -0.94963056 0.57332987 -0.23030141 0.49177042 -0.006282871 -0.6528567 0.46883947 0.37959474 0.2991583 0.6300927 0.49257037 0.0012848666 0.5232875 -0.433812 0.69828355 -0.96703476 -0.58492786 0.052213512 -1.1996734 0.20746852 0.85625446 -0.65265477 -0.52971727 0.47720814 0.94886065 -0.5530283 -0.37955227 -0.31468156 -0.6967654 -1.3396919 0.07142422 -0.6229372 -0.61121184 0.6893093 0.43108517 0.51694053 -0.6732423 0.11172162 -0.5256248 -0.21854171 0.50936776 -0.21813913 -0.71562463 0.95275885 -0.6768555 -0.39658013 0.47491568 -0.3669758 0.37517363 0.015381243 -0.33658963 0.46518356 -0.6910189 -0.955319 -0.09204619 -0.56729794 1.0472682 -0.0016910451 0.16979937 0.2301726 -0.12138091 0.30348825 0.41498634 0.9956612 0.35768962 0.10791476 -1.283474 -0.035651505 0.592426 0.5904102 0.38659856 0.4110839 -0.5763664 0.560938 0.104315616 0.033999197 0.76712775 -0.38255242 -0.07579156 1.4217381 0.18652923 -0.22799718 -0.09342802 -0.095376834 -1.7291448 0.3031006 0.51053196 0.0056074974 -0.42646524 1.0859098 0.6733472 -0.3811617 1.1707712 -1.081951 0.028895797 0.15529516 1.2589414 -0.32632804 -0.49507844 -1.13091 0.33002192 -0.65847117 0.7642372 -0.072887175 1.0895165 -0.44434044 0.92603296 0.08710109 -1.7604578 0.029191002 0.7381105 -0.26231498 0.296754 0.89665806 -0.039291583 0.19336574 -1.3609242 0.8400294 1.1479479 -1.46032 -0.24251057 -0.8674894 -0.283817 0.9309937 1.1318448 1.2320102 -0.3366551 0.60414916 -0.8725869 -1.3535537 -0.58628947 2.2275453 0.45349273 -0.060646176 1.0301914 -0.70152974 0.09514025 -0.17483273 0.9962185 0.12715472 0.2040931 -0.78544897 -1.0185218 -0.9203709 0.88894683 -0.07671973 -0.56727064 -0.51732594 0.6524918 -0.33520323 0.8079346 -0.20972724 -1.1176338 -1.2931621 -1.3074663 -0.10634918 0.040913895 -1.0053399 -1.0497682 1.3454822 -0.5109547 -0.5155733 0.045623735 0.56007916 -0.58110386 -0.4619319 -0.3552391 -0.7644926 -1.0456202 0.6089315 1.1219723 1.3459718 0.032706413 -2.4403827 -0.24865891 0.32490867 -0.4931058 0.5279568 -0.45634606 -1.2783257 0.44431305 -1.0231 -0.04769066 -0.23869634 -0.7141751 -0.4545727 1.0634341 0.043378264 -1.2708946
30 -0.5142576 0.26981223 0.7141285 0.10977166 -0.27658036 -0.6886204 -0.2493175 0.14452103 0.16045931 -0.111175336 0.06626645 0.7709747 0.8491544 0.4423104 1.05479 -0.4581493 0.14315642 -0.29488704 0.25423574 0.8809403 -0.25617757 -0.28900012 0.6742371 0.10886078 0.84771377 0.27773684 0.47823983 1.4968336 1.4269204 -0.62914383 0.08549498 -0.19178443 -0.069345295 -0.029106319 0.20311376 -1.4913446 -0.43434277 -0.4694835 -0.08345968 -0.6552347 -0.6011311 0.76198626 -0.36709458 0.1711337 -0.64790106 0.4112648 0.052861035 1.1172411 -0.028382756 -0.4756642 -0.1690032 0.27817798 0.012157608 -0.42986494 0.19151732 -0.6645984 -0.18491589 0.6130674 1.0301125 -0.47937235 -0.5678757 -0.07380317 -0.169578 -0.39789864 -0.11538707 -0.20210119 0.13280325 -0.35113773 0.91908085 -0.14640059 0.72039837 0.23495725 0.57556397 0.07513086 -0.58684754 -0.9886902 0.59798515 0.46610516 -0.28858507 0.10043468 1.1534361 -0.90669006 0.79111326 -0.6096925 -1.2425243 0.20519711 -0.6603404 0.47850016 -0.17336129 -0.93582875 0.06211901 0.077616654 0.11045711 -0.035597123 0.41429532 -0.3064568 0.2996956 -0.07774231 0.12695692 0.3714388 0.25314623 -0.18045267 0.5308616 1.5373785 0.8590976 -0.03130925 -0.005483017 -0.228454 -0.95341367 -0.47353175 -0.771837 -0.10219637 0.4197386 0.1810932 -0.65861315 -0.3114006 0.4720023 0.323639 0.2515684 -0.5986832 -0.25883514 -0.7634146 -0.26298594 0.13084003 0.26500043 -1.4005291 -0.32649803 0.28547004 -0.581989 -0.66520226 0.24322477 1.3236064 0.3466212 -0.0494548 0.5133503 -0.39123663 0.2865963 0.21018301 -0.3177172 -0.038566414 0.37135285 0.07074737 0.6932556 0.55715644 -0.9823513 -0.3487287 0.010482979 -0.1435525 0.5231173 0.44232824 0.2170377 0.6543798 -0.12924992 -0.46877787 0.18969709 0.85706514 0.013263892 0.1784634 0.6573335 0.6663782 -0.30696476 -0.33429068 -0.39958826 0.4535788 -0.61317486 -0.24241813 -0.3339786 0.5072846 -0.7393234 0.72456175 0.073866546 0.7482208 0.49224415 0.09967368 -0.23826975 0.8173741 0.1048453 -0.7671911 0.66315633 0.7650215 0.39756846 0.4092914 -0.50252753 -0.6395301 0.019051893 0.22008562 1.2363132 -0.19642535 0.56090117 -0.39819375 -0.5653806 -0.045567498 0.12971269 0.5388353 -0.9752606 -0.61465716 -0.27704373 -0.42910635 0.5573695 -0.3657181 -0.30426678 -0.17942195 0.9520323 0.17619255 0.2734231 -0.4628213 -0.52360624 -0.12470762 -0.36172384 0.41091207 -0.7043184 -0.2318252 -0.8867654 0.04298675 0.13920794 0.67840874 -0.47823387 0.7469075 -0.5479268 -0.49405083 0.7539097 0.661594 -0.9067191 -0.2786648 -0.00087164296 0.46289346 -0.4537807 -0.6710772 -0.021048635 0.04045979 0.37990522 0.43291596 1.3818264 -0.62116534 0.5005897 -0.6349925 -0.3359234 -0.2731824 0.036460686 0.29868144 -0.42485702 0.015365023 0.057625443 -0.60998297 -0.031046964 -0.22968152 -0.2174085 0.378712 -0.33891997 0.3970413 0.36894122 1.1148661 -0.7806113 0.10411878 -0.6064161 0.5800847 -1.1128954 -0.16467689 -0.22418067 -0.11379207 0.021099743 0.07243354 -0.13159998 -0.51300377 0.23043361 0.32351875 0.23107623 -1.1197637 -0.6523223 0.3470867 0.43553647 -0.7403726 -0.16341953 -1.5812324 -0.18207796 -0.9441559 -0.10829218 0.2600837 -0.21302637 0.2253831 -0.12974924 1.2242246 0.28466675 0.19826718 0.5469613 1.3079046 -0.41371202 0.31794623 1.0032312 -0.08321313 -0.22492142 -0.27433255 0.50820804 -0.076429866 -0.46118963 -0.43179655 -0.84971946 -0.45457867 0.7829745 0.39036205
179 -0.21216752 -0.75578165 0.75309366 -0.060086753 -0.24549323 -0.48677292 -0.8593062 -0.5337984 0.5367059 -0.13745624 0.20202853 -1.0478173 0.849109 0.2995266 0.25746462 -0.24471393 -0.3196011 0.3243345 -0.562981 0.21097407 -0.005570345 1.2814277 -0.5679622 -0.10814013 -0.28170848 -0.65396065 0.08400893 -0.05695772 -0.18598607 -0.99051744 -0.032496113 0.59099126 -0.61719537 0.014558745 0.25849646 -1.3713056 -0.26620334 -0.056481343 -0.65597254 -0.40308616 -0.58694625 0.15670687 1.2683208 0.12592612 -0.9015732 -1.0059184 1.682482 -0.7721288 0.0566623 -0.5464765 -0.022522006 -0.45431003 -0.4194345 -0.5389226 1.0443419 -0.3370586 0.4809954 0.20082764 0.110300764 -0.38883203 -0.9464901 -0.3025648 -0.5583856 -0.73854166 0.08615412 0.4014495 -0.19250569 -0.63997215 -0.17799392 0.1395982 0.39454108 -0.67089456 -0.0070297206 0.45093355 -0.75375456 0.35658395 0.06772998 0.4486982 -0.189893 -0.064990774 0.56496286 0.08408538 0.4620299 -0.61194134 -0.027382286 0.8915531 0.0028717373 0.3378436 0.30727142 -0.46781626 -0.4349725 0.6844696 -0.37176874 1.0267348 -0.06998055 -1.0195146 0.42014045 -1.1156404 0.13410854 0.56431144 0.70327216 -0.5331901 -0.08672632 -0.16101117 0.22499603 0.26274902 0.13340978 -0.7202723 0.31730935 -0.38008633 0.37501296 -0.08936498 0.28291807 -0.18207523 1.2415262 -0.8055736 0.40587175 0.3775796 0.08259585 -0.42454252 -0.11276704 0.043355174 0.06682273 0.35464057 0.4569674 -0.27560678 -0.91915625 0.37309763 -0.13179998 -0.56544125 0.050795924 0.5740022 -0.15994342 -0.5665702 0.10866684 -0.5221531 -0.041637197 0.47241512 -0.456788 0.5699767 0.14194043 0.70689577 0.42116103 0.6623976 -0.694459 -0.26414663 -1.0889866 0.16489926 -0.29667908 0.4544964 0.14892443 -0.30296174 -0.14842567 -0.06761291 -0.08544168 0.07054716 1.0916831 -0.546938 0.20023724 0.32278717 0.44114283 0.6582887 -0.069368556 -0.16636467 0.17369707 -0.33245018 -0.2688393 0.016456218 -1.2188653 0.17063999 -0.15259553 -0.03954641 0.5851179 1.2085533 0.35729685 0.08754769 -0.52783793 -0.28225565 -0.014520547 -0.04886005 0.54034203 -0.37213695 -0.23760653 -0.6245274 -1.234259 0.25070024 -0.007827898 -0.049671013 0.64139664 -0.37355518 -0.52180105 -0.4411821 0.12346279 -0.23394261 0.35160112 -0.16890368 1.0924197 0.30113235 0.5318008 -0.18412119 -0.38983753 0.07962712 0.33093864 0.44671074 -0.22886069 0.83743376 0.29217806 0.5924761 0.42302915 0.10997676 -0.4416022 -1.1684777 -0.86518824 0.5320741 0.21885847 0.33121738 0.6512551 0.4104636 0.57993335 0.56143576 0.60004437 -0.67960143 0.3086264 -0.6849351 0.08860699 -0.5881624 0.25810748 0.65882313 -0.2650031 -0.26930946 0.13805167 0.07263223 0.87454313 -0.058023315 1.1187472 -0.79063374 -0.90999603 0.3308123 -0.17861894 0.072780125 0.49386796 -0.10769945 -0.3431055 -0.20071879 0.034898486 -0.33932194 -0.5429158 -0.08688157 0.27091134 -0.9245503 0.52992696 0.3337489 -2.1725106 0.34720173 0.4006131 0.5088978 0.4895026 -0.37744066 -0.6670496 0.6438109 -0.59169054 0.34419146 0.7483245 -0.10948318 0.77700263 -0.5349631 -0.19513892 0.13381104 -0.646819 -0.3818733 1.3476317 -0.5776404 0.8209546 -1.0187904 0.51468 -0.77336556 -1.0670778 1.0299847 -0.56554663 0.03008104 -0.15003641 0.15921067 -0.17415163 -0.18212071 -0.09577842 -0.65565646 -0.9342137 0.38016492 -0.4457434 -0.5625359 -1.0568746 -0.9358881 -0.25386932 0.28497592 -0.23224126 -0.080784254 0.06795813 -0.77609277 0.24559656 0.86008954
120 -1.1879762 -1.2153219 0.020634925 0.29395625 1.7152984 0.5072435 -0.48670265 -0.37863043 -0.3920946 -2.3464801 -1.0356057 0.48925564 1.6127806 -0.25671235 0.9220922 0.19406188 0.41153863 -1.2894104 1.2512344 -0.42796797 -1.0080488 1.7025265 0.16032527 0.008878554 0.14129953 0.47244045 1.4812144 1.211694 1.4437886 0.25040296 -1.0221144 -1.665487 2.7040782 -0.20892291 1.3885227 0.049980436 -0.44281274 -0.087038085 -0.47248283 0.93461853 0.7746053 1.3774412 2.6428201 2.1548758 -0.8713018 -0.01144855 -0.8594154 -0.64017326 0.39094016 1.2894553 -1.7087979 -0.021451 -2.1913278 0.5100932 0.8579756 0.12301788 1.0239742 0.7674925 -1.5026681 1.5346575 0.8633841 0.29376134 0.9467771 -0.49855936 0.8782957 0.4090445 0.24669306 -0.9423607 -0.75329655 -0.25626555 -2.178098 0.53403914 -0.20816256 -0.81129843 1.5512254 1.1053189 0.3819582 0.44657084 0.6135893 -0.63583535 -0.29756704 0.43186045 0.95824784 0.0072961035 -0.61854744 -0.9287664 0.5352443 0.16697922 -0.48697153 1.8878299 -0.19703901 -0.61726195 1.714633 -0.2265279 -0.6823564 0.18622196 0.33827153 0.06308431 -0.46493372 -0.49218157 -1.9956797 -0.82452565 -0.63017076 -0.90615255 -0.12322914 0.49205253 0.8489783 -0.5975213 -0.53690827 0.34173357 -1.8950204 0.9766159 0.49816766 -0.7205324 -0.06268162 1.2286444 -0.3816087 -0.7933931 -0.555867 -0.26327196 -0.3460132 1.3017362 -0.32234493 -0.924204 0.87132275 1.0055424 -0.6127122 0.80028427 -0.17211035 0.1737733 -0.109263256 0.51596767 -1.0424992 1.1212022 0.7063875 0.48307902 0.3099134 0.519964 1.4957829 0.82544017 0.50590974 -0.54382765 0.085566945 -0.8250921 1.6844825 0.4421572 0.17992555 0.08070572 -1.226889 -0.7015619 -1.4672328 -0.4617787 0.61220455 -0.2917955 0.6746287 1.275668 -0.98160845 0.391287 -0.30080462 -0.42191026 0.44076592 -0.378208 -0.50713414 1.8204703 -0.5206573 0.9661258 0.16497064 -1.1204522 0.1669838 -0.14905514 -0.9808795 1.1154691 0.99989134 -0.057297032 -0.6390787 0.15279265 -0.28466502 -0.6835016 -1.1433071 -0.031989973 0.26000565 -1.538834 0.16619782 -1.9760805 -1.8515877 0.5496839 0.03996346 1.0919712 -1.2755868 0.2575944 1.4882301 1.0999361 -0.2464967 -0.5737342 0.15062472 0.46702158 -0.22702843 0.053594362 -0.58292824 -1.4588464 0.2541766 -0.22782429 0.97598904 -0.025556536 -0.30104867 -0.470049 0.2566467 -0.40499008 -1.1083043 -1.0629843 1.2007253 0.12751058 0.29876855 -1.0317544 0.039705977 -0.33544552 -0.8509028 -1.0280986 -0.14208129 -0.03180877 0.2711786 -1.2046272 1.9265739 -1.856312 -0.67290837 0.97190183 -0.6004757 0.49024096 0.14346129 0.8446389 -0.9960454 0.7962388 -1.1465939 0.14674653 -0.26266432 0.14403734 -1.302155 -0.3874717 0.51132673 -0.747865 -0.22538158 -0.9482972 -0.9558943 -0.39420804 -0.25891712 -0.45095605 -1.4476861 -0.178565 -0.5614923 1.0490817 -0.2435818 1.5078957 1.2912449 0.76103973 0.8050713 -0.05040091 1.1602064 -0.20373684 1.3135083 -0.5626807 -1.2999549 0.8460988 0.12017806 0.17051154 -0.8381398 -0.23104334 0.17344084 1.3215275 -0.7803409 0.15393108 0.05349889 -0.12831846 1.2263784 -0.5739222 0.4542987 -0.707181 -1.4352785 -0.7282006 1.2036915 -1.1661807 -1.3102267 0.9776469 -0.25676745 -0.99887526 1.5073141 -1.0176734 -0.6870254 0.94108295 1.1788864 -0.7131066 0.060587693 0.47739655 1.3675474 -0.23726262 -0.39361486 0.698564 -1.549343 1.0604978 -0.06273443 -0.87170553
121 1.7732569 0.898648 0.48653796 -1.9911337 -1.1506693 -0.85294074 -1.5541072 -1.0330169 -0.7029102 -1.3053708 0.65631294 0.65446913 0.10733049 2.1121755 -2.287647 -0.005603049 1.3187559 0.9220442 -0.05227216 -0.03880039 -0.5923446 -0.4748593 0.5463198 0.57256424 0.046876445 -0.37908342 -2.2047637 -1.3281004 -1.5012077 0.21920209 0.3296997 1.7124951 -1.1319778 -1.530562 -0.3570652 0.27452913 0.38112152 0.9773339 0.54602337 -0.36626375 -1.7052004 -0.084189504 0.22186479 -0.1600319 0.3868196 0.82888407 1.5487556 -0.8615205 -0.7219424 0.0948535 0.64463913 -0.040041592 0.23288779 0.114813946 0.4038145 -0.22042155 0.8004934 0.43110278 -0.26793483 0.024803294 1.7333815 -1.135644 -0.25430942 -1.4975417 -0.657653 0.9780657 -1.142852 0.34143132 0.5617123 -1.1248941 0.5739763 -0.0101090195 -0.35320026 0.35445562 -0.16142277 0.25117537 0.22338139 0.62955403 0.70558184 -0.79281443 -0.6444114 0.41388538 -0.73964405 0.12855004 -0.25113627 1.2819426 0.841964 -0.4157945 -0.03365166 -0.6980918 -0.10160823 -0.29590118 -0.3300232 -0.4433261 0.2274817 -0.084887356 0.17187275 -0.24231333 0.61300325 -0.6199577 1.0170488 -1.6595759 -0.62926537 0.24405627 -0.63866603 0.27139494 -0.3205078 0.0062318887 -2.1838672 0.009342917 -0.02040549 -1.5010623 0.40304923 0.49034962 1.4296774 -0.09765837 0.74050564 -0.42438623 -0.018878976 0.46938384 -0.94864696 -2.0944147 0.60226935 0.08091537 -0.58428913 0.1771787 -1.2727808 0.1851939 -0.422039 0.3179539 0.49039066 -1.7002962 1.9209087 0.40208408 0.031560663 -1.850375 -0.17287773 -1.8240086 -1.580388 -0.036425058 0.93422955 -0.26591906 -1.2152352 0.3705753 -0.23629199 -0.8185082 0.36626765 -1.710273 0.59636664 0.40330264 1.1778086 0.39476448 -0.58468795 -1.4100221 0.6549433 -0.25098804 0.47545442 1.0342581 -0.9292428 0.19061396 -0.31771335 -0.79045486 1.1870117 -0.15912673 -0.4628043 -0.31613177 -0.09935796 -1.0040314 -0.9024314 0.11475334 0.28358865 -1.1343757 -1.4232117 0.73349947 -0.18240891 1.5351459 -0.09640188 0.37027457 1.0819541 0.003180037 0.6837404 0.7840799 -0.6597171 0.3362338 0.6147073 -0.3798639 -0.42371628 -0.37346056 0.7921958 -1.3547639 -1.3128949 -0.5076683 -0.29218093 -0.33648768 0.83406174 -0.3862824 0.2892254 -0.0020616825 0.34682724 0.01143992 0.3083774 0.18808115 -1.4550663 -1.4793303 0.1581386 -0.90411645 -0.092103556 0.76674944 0.102205865 0.8385084 -1.9634755 -1.1792413 0.58259946 0.11073239 0.25331143 0.9751514 0.93311757 0.5987534 0.5563317 0.17217271 0.39279896 -0.2118778 -1.0838834 0.47476026 0.7221774 -0.25019413 -0.27882499 -0.46445066 0.3915259 -1.4193275 0.3180004 0.53526556 0.50657165 0.9202301 -0.045982957 0.30680078 0.8185659 -0.25219503 0.25723255 -0.09556757 -1.5855904 0.81636333 0.7045661 -0.44026083 -1.9056889 1.1552353 1.7218229 -0.2156823 -0.8999765 0.23815905 -0.18749098 -1.7674773 -0.21833047 -1.7998192 -0.019442677 1.7406933 -1.2869219 0.27143303 -0.368954 -0.5828319 0.53604645 0.18785274 0.15983489 -1.8220246 0.5635234 -1.297645 -1.0911897 -2.8109682 0.39323607 -0.1639902 0.72164524 1.1809098 -0.510555 0.73552203 -1.570828 -0.16056783 -0.30071515 1.1312121 -1.2063112 0.17509316 0.96979195 0.4770806 0.05510943 -0.36231413 -1.206404 1.8198633 -0.04797517 -2.326316 -0.3376758 0.9066737 -1.9750777 0.013034434 -0.47216603 0.51920855 0.32898605 -1.2323322 1.6574455 0.37790376 -1.8662633 0.810479
194 1.968172 -0.40204164 -0.009533544 0.37611258 -0.22753695 0.67636746 0.44180414 -0.3221337 -0.47162986 1.6334486 0.5121766 0.7772683 -0.34422076 0.7381142 -0.87150943 -0.15122822 0.3707098 1.1500738 -1.1068592 -0.8532239 -0.54434484 0.7542084 0.25963825 0.4685102 0.8438793 -0.38551188 -2.068089 0.3211606 0.72027683 -0.85971767 -0.051130943 3.2760572 -0.7263483 -0.085609816 -0.32509908 0.060302 -0.291292 0.98850065 -0.30316627 0.0034260873 -1.2909956 -0.6436332 -1.6105264 0.19133636 -2.023966 -0.104737066 0.6750646 -0.42887107 0.11618863 -0.5856184 1.0543485 -0.855982 0.9710819 -0.28944826 0.13821644 1.0925697 -1.5275376 -0.21035914 1.1828452 -2.1842253 -0.5510944 1.0164372 -2.1780326 1.0221477 -1.6989247 -2.1124752 -1.3233435 0.16664128 2.3285568 -0.6789291 0.894593 -0.70811373 0.014692709 0.034234814 -1.1583781 -0.011817039 -0.08962638 0.29173172 -0.13929458 0.41425014 0.24319075 -1.078976 0.6507153 -0.2312288 2.068414 0.9744886 0.9953828 -0.8820151 -0.26078165 -2.2302005 0.90864223 1.0250658 -0.5335181 0.53779227 0.41147107 0.21425615 0.27999023 -0.18998747 -1.0615262 -0.59774214 0.43560955 0.88581043 0.5737187 -0.22109516 -0.6728442 -0.35470957 -0.40383905 -0.22842635 0.7202498 0.17637278 2.1536233 0.12962592 0.5155045 0.26367837 0.49057108 -0.046458058 -0.14011848 0.6090721 0.36914855 -0.17941828 -0.7085812 0.10002043 1.8179162 0.9255246 -0.1114598 -0.21996787 0.35418314 -0.1974043 0.020234125 0.023295818 -0.15341242 0.4274942 0.04772449 -2.1504133 -0.618914 -0.34863487 0.2971982 -0.36616212 -1.4188682 -0.005874796 -0.579627 0.94676816 0.11159937 -0.9340788 -1.2464741 1.0301881 -0.66959053 0.6436045 0.6311451 0.33829615 -0.10595379 0.53194344 -0.14484537 -0.05069069 0.7305593 -0.77036893 1.1183722 0.23682381 0.017138368 0.5390071 -0.36669728 -0.5979483 -0.35501787 -1.2038413 0.04479962 0.7321206 -0.5223592 -0.7638861 0.7549107 0.5293924 -0.5952138 0.04608077 -1.3796834 1.0176513 1.3833455 0.31606382 -0.9175999 1.7853911 -0.8406708 0.6370656 -0.30679604 1.2805192 0.47982186 -0.3873585 1.3706741 0.27498773 0.30678925 1.1502749 0.02945308 -0.51407224 -0.5927003 -0.7504005 -0.7378735 -0.083639525 0.70759666 -1.6683632 -0.62083423 0.87322235 0.088499285 0.44456437 0.6411567 1.5704092 0.9032938 -0.040517643 -0.6491396 -0.6113033 -0.42300975 0.038320303 0.1592858 0.65446985 -0.94318676 0.6182862 0.29715547 -0.017946178 0.17578422 -0.46031427 0.3768852 0.34771258 -0.76489043 0.29494727 0.74241936 0.14846738 -1.3819822 1.4095157 0.5471185 -0.9919295 0.07364187 -0.3996605 -0.31983095 0.28375185 0.2424779 -0.8422717 0.40114018 -0.110080495 0.26495862 1.1300285 -0.7343953 1.1661928 0.25614506 1.1003999 0.8419837 0.32726762 -0.33569753 -1.2069509 -0.52795744 0.42754388 2.4965453 0.7953671 -0.5509007 -0.73798805 1.0013925 -1.3180108 -0.5164481 -0.79900974 0.6507029 0.7674601 -0.6023091 -0.23872261 -0.6133906 -0.21925223 1.6366869 1.5171949 0.5405994 -0.08871435 -0.068518326 -1.3156021 -0.6914079 -0.47219047 0.045675598 -0.7656034 0.5092672 0.5768035 0.19316627 -0.8636651 -0.6695911 -1.2214493 -1.400619 -0.53999907 -0.73495793 1.2057611 2.4464705 -0.86924106 0.8806405 -0.032993965 -0.49029496 -0.68773025 -1.8914423 -1.0854075 1.4933764 0.6902464 -0.66204464 -1.2661649 -1.5921493 0.928523 0.39283472 -0.060022417 -0.007863358 0.5160184 -0.7624185 0.4219035
164 0.26216644 -0.42690882 -0.62041736 -0.48232603 0.12502582 -0.67080855 1.1836922 0.56248623 0.42769474 0.023252487 0.010816384 -0.6899282 -0.38169852 0.18826127 0.2880496 0.47616613 0.1346743 0.2839153 -0.22406717 -0.56675905 0.36791006 0.47579488 0.8930824 -0.8982301 -0.3731012 -1.4352325 -0.95550025 -1.4888937 -1.4096587 0.21740112 0.032902792 0.25554448 1.3923697 -1.0743716 0.4405143 1.0659087 -0.66912353 0.09713799 -0.28759187 -0.5240573 -0.8310569 0.5037921 -0.54375416 0.33089998 -1.4615554 0.1699089 0.56072545 -0.5897871 -0.007989789 -1.2145815 0.16461435 0.0822247 0.069232665 0.0041341656 -0.19137627 1.0053451 -0.41286382 -0.99474895 -0.16458969 0.10796035 -0.89365804 -0.1531831 -0.16863881 -0.859041 0.79133755 0.8314559 -0.42527315 -0.91683996 -0.114827864 0.03759235 0.25688654 0.44081628 -0.56775725 0.77773494 0.7279157 -0.7713653 -0.50276786 0.34091622 -0.3640714 -0.50786996 -0.7441143 -0.43335837 -0.9468722 0.99886596 -0.08859343 0.6378662 1.3146468 -0.42213723 -0.8691687 -0.1681951 0.6874545 -0.031702243 0.055964623 0.0897917 -0.65300125 -0.108904965 -0.19338751 0.065390944 0.98066825 -1.0211124 -0.5908641 0.66079897 0.85916 0.7755039 0.4425456 0.25787315 -0.3588 0.75846636 0.380762 -0.513292 0.16162606 0.30183417 0.13451575 0.0596047 0.5246579 -0.087358005 -0.44310033 -0.10202777 -0.2619972 -0.47422925 -0.86052597 0.994971 -0.7794043 0.19322821 0.2107844 -1.2027892 -0.19588058 0.7855687 0.23820071 0.1654703 0.5366652 -0.3823981 0.5977631 0.55919707 -1.413668 -0.50934494 -0.6973609 -0.9741273 0.13666986 -0.25456223 0.2675379 -0.23139347 -0.865187 0.33427623 0.43302935 -0.38609862 -0.99781275 0.05633636 -0.91470426 -0.45298934 -0.10822653 0.60950017 -0.47532892 1.390938 0.9695713 -1.1618766 -0.013347311 1.8119547 0.7512221 -0.5860683 0.74571717 -0.6257312 -0.06393048 0.11616557 -1.014334 -0.8366207 -1.2458991 0.53528446 -0.26530915 -0.45205763 0.6016903 -0.6772517 -0.26396465 0.65495837 0.89632654 -0.697197 -0.19064426 -0.14461863 0.70710695 -0.09431187 -0.63177025 -0.24820092 0.44442174 0.04640405 0.34412864 0.17726685 -0.86036664 0.24792697 -0.63523704 0.29661378 -0.8214217 0.59151196 0.9899401 0.012876685 0.48450822 -0.8001948 0.24913476 -1.2737651 -0.3923569 -0.60627145 0.23601617 0.63659114 0.48061404 0.5822547 0.42520952 1.00103 0.641398 0.6354228 0.7001948 -0.4071755 -0.9024079 0.62636244 -0.078681536 0.08443275 0.62524396 0.1947459 -0.66726154 0.03603112 1.2880889 0.54130024 0.07454815 0.30900785 -1.094864 -0.27000132 0.18892957 0.07631068 0.48970005 -0.6760982 -0.3243772 0.28947377 -0.5106749 0.8037129 -0.24548237 0.3640028 0.3530215 -0.54458046 -0.18406709 -0.04304329 0.5238187 -1.1173217 0.4788263 -0.95785666 0.65047574 1.3890586 -0.2888428 -0.30147815 -0.49204448 -0.75836575 -1.0506587 0.46006718 0.8650518 0.12228939 0.90690213 0.13086577 -1.0153092 0.9210239 0.46522662 -0.034853958 0.32051396 0.8551659 0.6834856 -0.63366455 0.128717 0.2452287 0.081170835 -0.4025717 -0.5725169 -1.1087239 -0.2901932 0.03702639 0.19023842 0.20242761 0.44488516 -0.59935147 -0.59909123 -0.48111075 -1.0487747 -0.3095117 -0.4817662 1.0603784 -0.5276368 -0.40884635 0.15303956 0.42120028 -1.1724836 -0.8421452 0.37009248 -1.2776344 0.28017065 0.47360086 -1.0741922 1.1731306 -1.094234 -0.790049 -0.29782605 -1.2768996 -0.56326133 0.31350487 -1.26893 -0.82508326
167 0.572699 0.05118658 0.1410599 -0.45007357 -0.35568142 0.20209593 0.9211171 1.0158482 0.57694334 0.18181692 0.5935825 -0.9239091 -0.54614717 0.11252469 0.113425806 0.35281354 0.477478 -0.076484025 -0.31392738 -0.21715717 -0.29095984 -0.19093029 0.293755 0.07387955 -0.9873241 -0.6554547 -0.7358863 -0.6600794 -0.105922505 -0.58871275 1.1146294 0.59902686 0.08493116 -0.061958734 0.5796165 -0.05245665 -1.4338152 0.4230443 0.26962242 0.33721268 -0.16722387 0.5756087 -0.7530575 0.71115285 -0.095810354 -0.96682596 -0.16401105 0.046058137 0.010571054 -0.45880467 -0.0017260612 -0.19482222 -0.46114087 -0.083361596 0.538885 0.4864307 -0.116542816 -0.77337605 -0.74295443 0.5333586 -1.1092228 0.014194141 -0.46372545 -0.77328634 -0.08479706 0.43525806 -0.5680931 0.2469268 0.18478112 0.10643495 -0.16649193 0.10505487 -0.25176334 0.30881512 -0.13590892 -0.3005003 -0.25487164 -0.0011401353 0.6552164 -0.23008467 -0.3101384 0.02991767 -0.5596317 -0.021325834 -0.11147889 0.47277343 1.2466464 0.32840583 -0.3598619 -0.37572423 0.2676761 0.35618773 0.4008035 -0.20862088 -0.7430814 0.35919288 0.2566559 0.56445813 0.32647443 0.042205207 -0.3618718 0.6412618 -0.04805538 1.0494374 0.12916118 -0.38850674 -0.12741841 0.025544085 -0.38182163 -0.658532 0.09349868 -0.41044226 0.13006869 -0.23199078 -0.014127155 -0.13780569 -0.63473207 -0.12989628 0.81312126 -0.88990307 -0.82877743 -0.21276115 -1.0442326 0.6921464 -0.14042051 -0.8777005 -0.6845096 -0.08622432 0.153818 0.019698037 -0.09779855 0.2631771 -0.3770787 0.10659811 0.26103294 -0.3092149 -0.81225115 -0.29927614 -0.5509033 -0.11556433 0.40982023 -0.008977544 -0.29308292 0.01950897 0.7767256 0.021987628 -0.27863532 0.23557696 -0.620284 -0.10636126 -0.20467393 0.48439726 -0.6155106 0.32695413 1.3396753 0.5190395 -0.33150882 1.1992145 0.5466911 -0.4707424 0.40447435 -0.8204827 0.52836615 0.18333519 -0.7321012 -0.33720353 -0.6895741 0.25485992 0.351794 -0.56616056 0.22337852 -0.77983105 -0.017499795 0.3986918 0.93448853 0.062877975 -0.5307443 -0.16156049 0.76881665 0.07748215 0.025776466 -0.48230565 0.5408807 0.29486123 0.14567286 -0.26192132 -0.13849701 0.7190896 0.040240984 0.4347414 -0.7649737 0.2596478 0.3188791 -0.16486585 0.3233654 -0.5656225 0.06718786 -0.24274834 0.40978906 -0.070111185 -0.6628327 0.5447703 0.34649923 -0.51635563 0.2843763 0.52533984 0.21310759 0.11714465 0.19782746 -0.98655176 -0.66124475 0.16427347 -0.028998796 -0.13708314 0.67069983 0.7220351 0.120016225 -0.12354898 0.5135637 -0.31045258 0.114157125 0.84955037 -0.76205873 -0.5887317 0.39395094 -0.10184463 -0.18642537 -0.5124373 0.013184204 0.595305 -0.22281599 1.070742 -0.04415601 -0.1308327 0.35895437 -0.7190997 1.0393031 -0.93399376 0.7935401 -0.4097658 0.35177574 -0.31261984 0.29929993 1.2654474 -0.6297525 -0.3285092 -0.8082859 -0.02717078 -0.94715685 0.039926343 0.14745705 -0.041766256 0.90687275 -0.14741865 -0.45142314 0.25635728 0.12632786 -0.15531313 -0.25345728 -0.6162796 -0.3804828 -0.1276307 0.60564816 0.37680134 -0.07597901 0.4974602 -0.43478596 -0.11213934 -0.36564457 -0.14297801 0.121613316 0.21409878 0.6401493 -0.385796 -0.23662907 -0.79882646 -0.71539253 -0.4426572 0.18959463 0.38690126 -0.1271558 -0.093435906 0.6118346 0.6980007 -0.482291 0.35965788 -0.055957012 -0.14652567 0.6824186 0.471875 -0.61997795 -0.17738469 -0.06709834 -0.63029116 -0.31138065 -0.72963285 -0.43174872 -0.25094676 -0.31576174 -0.31690353
71 0.8012975 0.0055014496 -0.51971805 2.8876147 -0.12817249 -0.89950895 4.2197328 2.0996935 0.24678834 1.4418094 0.01473614 -2.3631372 -1.022346 -2.2146144 -0.4742812 -1.2362595 -1.4145683 -0.32872093 0.5074063 -0.70374256 1.1685203 -1.3746258 -1.5341569 0.86372477 -1.1472247 0.6704135 2.133228 1.6187235 0.5747779 -0.14036486 2.4598787 -2.32873 0.58042425 0.4412641 -0.9654646 -1.0544181 0.59056354 -0.6732027 -0.5029691 -1.6240138 0.25110814 -2.5338035 -3.5011046 -1.3699082 0.78626573 -0.6199905 -0.5792159 0.086489126 0.23178086 -0.0010004418 0.8083377 0.13816945 0.37004924 0.26646203 -1.0065401 -0.73775375 -1.6739863 -2.447744 0.2266557 0.12725411 -1.8228219 -0.25280985 -0.4974411 1.2792552 0.3190318 -0.6709571 1.2144375 -0.26155788 -2.2942145 0.68159467 1.2081296 -0.5467686 1.2416586 0.87109965 -1.8621688 0.61677486 -0.21454534 -0.7025413 -2.4396122 2.1217 -0.01857564 -1.0372962 -1.3302525 1.2164153 0.67842984 -0.75573903 -1.2977877 1.410667 -0.056775738 -0.11560649 1.1355946 1.5985172 0.4400557 0.4099329 0.42085496 -0.19921559 -1.8033285 1.642674 2.506874 2.24977 0.7971055 0.3579827 0.9071851 1.9638488 1.203805 -0.18614328 -1.1771638 1.0199994 1.221644 -2.0031688 1.2494301 -1.1098425 -0.24979925 0.30567726 0.5404157 -1.509461 -0.036299035 0.09354062 0.24620439 1.2150277 -0.11294875 -0.48693952 -0.008557779 2.3372755 -0.28298947 -0.70584047 -0.25620294 -0.501378 0.33944294 -1.6525218 0.50108385 -0.40331143 -1.1690532 -0.87571067 0.14700408 1.348863 -0.3749447 1.7849951 1.1877648 0.5614755 -0.8766492 0.4912515 1.0785959 1.4797904 0.81802624 0.7468758 -1.2662742 -0.09875557 -0.14244114 -1.1129023 0.22550263 -0.095055595 -0.1635833 0.8615903 -1.3266435 0.52186054 0.8130395 0.4154415 1.9857367 -0.1571548 0.79902637 -1.0262396 1.1459006 -0.046929255 0.25172326 -0.09376737 1.6457801 0.747473 -0.5461893 0.21384574 1.3086113 0.36023703 2.362277 -1.0329398 0.47517404 -1.8281074 -0.04593562 -0.588153 -1.281389 0.20951569 0.025461236 1.0881999 1.9734141 1.0445743 1.003029 -0.50220186 2.488706 -2.6431475 2.5503151 1.8042134 1.3416166 -0.91407114 -1.4890814 0.91000867 -0.6274952 0.060691815 1.4921783 0.16419196 -0.6073352 -0.55192167 -0.08572958 0.84514856 0.30996937 1.5442631 0.23369172 3.0785708 0.28634492 -0.3414277 1.9747859 -0.8470685 0.39731732 1.0884564 -0.8451634 0.71726876 -2.1811187 -0.64543223 -0.4800664 -0.14254619 0.15691233 -1.119743 0.2940422 0.61940855 -1.4249942 1.3123208 -0.999907 0.094995916 0.3604881 -0.44936126 0.9614798 1.2353309 0.9453921 -0.77759343 -1.1415062 0.114397764 -0.08871235 -1.7137568 -0.28472012 -1.03084 0.103974275 -1.681834 0.43592152 0.63330495 1.3611428 1.5193129 2.2131717 0.62371236 -0.712459 -1.442959 1.6106559 -1.1435082 -0.71341604 1.6759455 -1.076068 1.5040631 1.1067543 -0.5222718 0.6048241 -1.126716 -0.6988292 0.85412216 -0.11135016 0.5699652 -1.264649 2.919713 0.76410955 0.4145007 -0.35151562 3.7815242 1.3664097 0.3112865 -0.50481915 -0.6344743 0.2342221 0.9664196 1.9266433 1.0517117 -1.308812 -0.80960333 -0.80702233 2.8934028 1.3269982 -0.7356122 -0.75539535 0.7805903 -0.40471146 -1.7608626 1.2152773 0.07783783 -0.5931402 0.4378377 1.8588129 0.716776 0.015014964 -0.62569034 0.23259361 -1.5883981 0.15716189 -0.90831864 2.2598429 -1.0932308
141 0.2322729 1.1752552 1.2213444 -0.35245872 -0.21786322 0.7695559 0.114224315 0.035106607 0.0012630668 -0.35721108 -1.0073184 0.09742422 0.41106918 1.1892474 0.2508713 -0.12065034 -0.4387916 -0.3181215 -0.1317401 0.07585585 -0.60398823 1.8460426 0.15118554 0.62293774 -0.50450015 0.17853625 1.0754503 0.50281024 0.5299955 -1.4721636 -0.14149654 1.023931 -1.4556239 0.16736816 -0.26528117 1.1382837 0.77409595 1.4665141 0.07668117 0.07082323 -0.2758484 -0.06061162 0.75341386 0.041039854 -0.7992232 -1.4680508 0.33132756 -0.5057899 0.5511561 -0.23639782 0.33900088 -0.8549253 -0.4769131 0.10100645 0.6450695 -0.38302052 -0.71464515 0.60495585 0.009910982 -0.21978562 -0.35520083 -1.011943 -0.10295322 -0.4378375 -0.53178316 0.36413378 -0.35777012 0.08706534 1.6193691 -0.117991336 0.49438807 -0.31328905 0.6620132 -0.6901547 -0.2361653 -0.5782852 0.3051396 0.5410659 -0.70831275 0.07504001 1.8092998 0.11489863 0.33904937 -0.7238156 -0.43562502 0.5665328 -0.12851462 0.86677283 -0.59856194 -0.0822998 -0.9269334 0.6427122 -1.1340162 -1.3895952 0.3505858 -0.7103474 0.004797563 -0.5105204 -1.2248799 0.7276846 -0.100592464 -0.107840925 -0.026544848 0.94000316 -0.055228204 -0.87541926 -0.6993351 -1.7304851 1.0707633 -0.7759545 0.47445026 -1.0814569 -0.22949879 -0.9641116 -0.49307594 -0.81462705 -0.6242037 0.51902676 -0.8298414 -0.66689104 -1.4851267 0.25044233 -0.95989245 0.80530167 1.4715569 0.90398914 -0.7114078 0.4739537 0.7928587 -0.5383473 -0.1896057 1.1547142 -0.5347997 -1.1124505 -0.27013227 -0.27834606 -1.0011522 -0.042203046 -0.26470524 0.47713402 -0.021432864 0.38544822 0.6787207 0.47900707 -0.5683717 -0.22982948 -0.7411044 0.39293823 0.6038411 0.42926627 0.9968454 -0.26151463 0.39254278 0.04038961 -1.0146781 0.7455524 0.033414874 -0.53211284 0.4828469 -0.04385313 -0.12649146 0.15320675 0.05670617 0.16941369 -0.7408401 -1.3802491 -0.5386886 -0.3114937 -0.98004246 -0.5938324 -0.43165442 0.15964952 -0.07799386 1.0162545 0.040225964 0.20293148 -0.2967021 0.8297363 -0.12991187 0.43876773 -0.020822098 -0.39847928 -0.7685218 -0.63858 0.6170501 -0.5734677 0.6464904 -0.0076873326 0.36680984 -0.5420119 -0.65001535 -0.50869685 0.95298004 0.555265 -0.45104802 0.5459172 0.08094417 -0.10178719 1.6172024 0.007603145 -0.5832479 -0.17548876 0.9179 -0.8434039 0.3937759 -0.23988554 -0.7911859 0.1648326 -0.77808255 0.42623296 -0.51080453 -0.7398058 0.65482396 -1.1598386 0.27976644 -0.38382345 -0.37062952 0.82295185 0.312527 -0.5172179 0.30613306 0.03501962 0.43642834 0.7581511 -1.1177013 0.16821086 0.76982117 1.2919596 -0.78706044 -1.2219312 0.9932313 -0.28342432 0.83062875 0.35057813 1.1823989 -0.4382171 -0.69507444 0.24010955 -0.1851498 -0.049200524 1.0921477 -0.30678552 -1.033974 0.08623071 0.8502557 -0.8234874 -0.5529228 0.51015735 1.8469232 -1.4423933 0.7920702 -0.37092954 -1.6339959 -0.6218099 -0.40557203 0.21481039 -0.56901044 -0.69231015 0.32176816 -0.34761348 -0.2509855 -0.92777693 -0.25101715 -0.34846932 1.040998 -0.015395633 0.900546 -0.5627958 -0.49983358 0.53968275 0.58011574 -0.7002247 0.22781706 -0.47354427 -0.010381819 -1.2039579 -0.7748568 -0.5983818 0.028485978 0.61416626 -0.8885018 0.6541462 0.8093443 -0.9290961 -0.16265805 0.23784296 0.114732414 -0.4045507 0.014662837 -0.095787846 -0.2578294 -0.42693254 -0.2528499 0.46953288 0.06484296 0.5656736 -0.6278386 0.77334005 0.22383125 0.39866304
195 0.23234306 -0.036711175 0.5348194 -0.28661546 -1.2314737 -0.09750076 0.35113734 1.0803963 -0.00024625985 0.10389753 1.0545597 -0.27674994 0.7252176 -2.8265004 -0.3926415 0.52250934 -0.26820976 0.25031364 -0.014388754 0.7366452 0.9096656 0.17531382 1.03342 -0.5178913 0.32803196 0.25519535 0.37765902 0.3110027 0.9310828 -0.7192601 0.26978406 1.4967642 1.1909173 -0.28114617 1.1162349 -2.5585356 -0.48478612 -0.0009226781 -0.16543795 -0.2971259 -0.011661494 0.12044053 -1.3062361 0.17816038 -1.3188279 -1.5480224 1.256251 0.8665969 -0.6921232 -0.9389074 0.42409682 -0.45046195 0.92024946 0.32166633 -0.84392494 -1.3922379 -0.23464336 -0.31064004 0.59810036 -0.31485498 -0.35621965 0.8729831 -1.038193 0.8402607 -1.4001043 -0.9363887 -0.84060144 0.21760833 1.6007577 0.1718831 0.096295856 1.6821622 0.19738217 0.6448901 -0.5878722 -0.9189949 0.35765556 0.22094302 -0.4784617 -1.1606619 0.48037025 -2.7565482 -0.04056822 0.6679527 0.46362984 0.9837381 -0.15511933 -0.10688415 1.2809591 -1.1049194 -0.5428328 1.1182402 0.16919155 0.5076391 0.71871066 -0.7953858 0.5452794 0.59368485 1.7111717 -0.8600119 1.410646 0.55539745 -0.20467702 -0.40430033 -0.94931287 -0.09336895 0.59079385 0.0012559205 -0.35899454 0.35382995 0.5028668 -0.06883913 1.7661668 -0.82549155 -0.3952491 -0.29923123 0.21645892 -1.0237422 0.2698491 0.41640562 0.1884776 0.58785987 0.701614 -0.8917597 0.4421326 -0.104887314 -0.075614244 -1.1045848 -0.8421175 -0.40564954 -1.2338165 -0.1164035 -0.45352784 -0.60460085 0.5989175 0.41212553 -0.047687937 0.80761135 -1.3654073 -0.6761088 1.1915004 0.37071422 0.026039433 1.6030082 -1.4564928 -1.1465008 -0.021948222 0.06130827 0.2622225 -0.14220577 -0.50519615 0.82173336 -1.7139053 0.21254754 0.2840979 -0.16892089 -0.7496377 1.343726 -0.20446065 -1.4269503 -0.7960471 -0.7003077 1.2531878 0.042481914 -0.7787333 -0.3873094 1.4734356 0.5925448 -0.31784293 1.6750009 -0.2683772 1.4735874 -1.0025997 -0.49575225 0.5808216 0.4188298 -0.14097051 0.43921545 0.94319385 0.018159257 0.44763082 -0.9771583 0.4184249 -1.7666912 0.24898401 -0.58476585 1.5151052 0.0828738 1.7469068 -0.14335795 0.7110451 0.282317 -0.0361128 0.87087 -0.14893357 -0.7835466 -0.7008492 -0.48727387 0.28636968 1.0716463 -2.3416872 0.8116107 0.12214038 0.49274445 0.24111824 -0.22804375 0.14269479 -0.4745669 -0.02433097 -0.6024283 0.09652307 -1.1954026 -0.5566609 0.8951381 -0.23289226 2.3041139 -1.3735243 -0.3367826 -1.8140358 0.35577464 0.40955016 -0.7578325 0.7915473 0.8475511 -1.0701429 0.012297964 -0.53492147 -1.5073125 -0.8406832 1.1155684 0.856542 -0.0493544 0.7090663 -1.2922448 0.5717177 -0.292716 -0.85237795 0.8931614 1.1894842 -0.31695706 0.9268202 0.12751189 0.72350633 -0.02548612 0.41929817 -1.3804952 -0.11840438 1.9292128 -1.2488163 -0.28316462 -0.5884547 -0.66831154 -0.09401803 -0.73204243 -0.06486171 -0.24593215 0.84042555 -1.7252061 -0.878784 0.97243494 0.7407273 0.41339272 0.61991435 1.457459 -0.08694296 0.98937416 0.21023259 -0.055128742 -0.30218154 -0.3806981 -0.0012536254 -1.1628629 -0.5382385 -1.0251721 -1.43764 0.096940614 0.8768669 -0.84388345 -0.70214486 0.51188016 -0.2890467 -0.9393299 -0.06482059 0.088579915 0.4373774 0.9409454 -0.07245125 0.48655713 0.9882869 -1.2583247 -1.0518976 -0.48366392 0.91149145 -0.6717408 -0.3720542 -1.1870637 -1.069499 -1.7838919 1.2240163 -0.751229
82 -0.07689454 -0.2186759 0.3566552 -0.49145836 0.5794815 0.8488234 0.66931486 -1.5243143 1.5877132 -1.7922864 0.010526552 0.24852258 1.7822306 0.78767335 -0.9341259 -0.029800944 -0.87642395 -0.1189118 0.8880513 0.65804094 -1.1784037 -0.119729385 -0.026006646 -0.3480609 0.95172536 -0.117932096 0.5312571 0.24208389 0.40770078 1.8487213 -0.48883358 -0.674289 1.2651746 -0.10644242 -0.50311756 -0.15389234 0.18284734 0.92146283 0.098517954 -0.21177627 -0.41427767 -1.3779463 -0.37832686 0.351987 0.31001914 0.71845865 0.5786498 0.24500534 -1.4219766 1.1712407 -0.66285634 -0.5823622 -0.041115068 -0.1632931 -1.2053983 -0.6570326 -0.56241167 -0.14644405 0.42984778 1.0081129 -1.0994226 0.704122 -0.4010422 -0.7209292 -0.038082447 -0.9412102 -0.2950405 -0.60553163 0.04725083 0.5881591 -0.9518157 1.0320534 1.2530816 1.6345356 -0.7404733 1.2870418 0.05692997 0.95249236 -0.43493488 -0.8244528 -0.07563637 0.7148497 -0.15897657 1.2215017 0.19467188 0.4029936 -0.4452332 0.18107742 -1.5631602 0.891953 0.6680379 -0.12839213 0.48517585 0.9171449 -0.06890813 -1.1168693 0.27799773 0.6187825 0.31933814 0.47684002 -0.1663578 0.043182842 -0.19983748 0.32644644 0.5421257 0.86019963 -0.82689476 -0.06512344 -0.52098095 0.13574955 0.7730472 0.4036793 -1.2266152 -0.16653243 1.1203519 0.027713044 1.264032 0.23123367 -0.32508007 -0.37446266 -0.71072686 0.14420316 0.12717691 0.13332945 0.19177285 1.8627989 0.12820064 0.56920683 -0.32227498 0.01536554 1.3763791 -0.55557424 0.07312487 1.513782 1.698761 -0.05693859 0.37667713 0.6013178 -0.8451872 0.67430454 -0.72351855 0.15556398 0.9533692 -0.95631933 0.48398823 0.18135528 -0.08977412 -0.46449772 -0.66238624 -0.07833724 -0.72570145 0.19749933 0.6430084 -2.083701 0.77426404 -1.0766802 -0.6263785 1.5171254 -0.38035917 0.6664603 0.11235982 -0.28881848 -0.54868835 1.1603278 0.065198116 -0.008766155 0.32321155 -0.7346148 -0.6161143 -0.09836562 0.27940792 -0.36639807 0.09420636 -0.19545643 -0.88491094 0.21250157 0.8495005 0.07428864 -0.6705006 0.4756963 -0.36049256 0.67531276 1.5636764 0.110356726 -0.082929105 0.5226522 1.3938401 0.27044526 -0.672519 -0.89280343 -0.012030045 -0.13393277 -0.21222149 -0.12145541 -0.3311945 0.19556603 0.53197545 -0.33433995 -0.60325116 -0.5310939 0.5980192 -0.11362893 -0.3187174 0.32400444 0.8202759 0.35990164 -0.5626561 0.6361728 -0.7482456 0.14474441 0.07329467 0.58712417 -0.7335103 0.5275525 0.17181666 0.023299621 0.048531577 0.5101897 0.36251155 -0.9533331 -0.053213656 -1.0060245 -0.43777886 1.099141 0.3334989 0.2533092 -0.74862415 -0.013334092 0.29486263 0.007898244 0.18006404 -0.66576934 0.5667517 0.32931036 -0.99128383 -0.0020478775 -0.3631679 0.2087302 0.14030251 -0.59225774 0.024358267 -0.5028776 0.4607099 -0.041597698 -0.21073113 -0.1847266 1.2862604 -0.042883404 -0.5331322 -0.008400109 0.4895782 0.28931072 0.40517217 0.43049556 0.3207152 -0.18234831 0.016729958 0.11180833 0.72726023 -0.12992932 -0.44070187 0.7277184 -0.5297504 -0.7070375 0.4011373 0.017118812 -0.4391739 -0.5263805 0.8475665 0.15076762 0.8123813 0.42017254 0.29095834 -0.44066215 0.10794497 -0.4801426 -0.8297506 0.57446 -0.36828026 -0.82190216 1.1854619 0.007614765 -0.42794144 0.08932617 0.7898519 0.11939337 -0.7062601 -0.4666671 0.7026776 -0.2855263 1.3567339 0.5572939 -0.068160966 -0.19120783 -0.08931007 -1.476537 -0.76784015 0.6792117 1.0134437 -0.8890032
39 0.5629502 -0.2154047 -0.19365738 0.3360663 -0.18700387 -0.93413395 1.3735042 0.11498301 0.79629666 1.2558429 1.6091778 -0.6720875 -0.22133267 -0.3483262 -0.48408347 -0.5030924 0.38726383 0.09946835 0.19520539 -0.6204016 0.25329977 -0.46299642 0.5818217 0.30304208 -0.3005262 0.35905716 -0.40252298 -1.0428495 0.42131424 -0.9432407 0.6460219 0.14430194 1.2615082 0.5387581 0.27705118 -0.76890755 0.33993647 0.17845291 -0.046688046 -0.14652412 -0.9253462 -0.38316977 -0.891767 0.4230724 -0.8328091 0.21599524 0.4136934 -0.78850746 0.34788564 -1.4526767 -0.13810007 -0.77198404 -0.92860556 -0.7106642 -0.29371306 -0.28136283 -0.28392035 -1.17852 -0.42076194 0.51470953 -0.5834455 1.0250309 0.45665827 1.3190317 -0.3959708 0.81766784 -1.2271603 -0.23898806 -0.47551352 0.376325 -0.3848929 -0.25651368 -0.42349496 0.7074989 -0.53550667 -1.0992954 0.7627795 -0.387744 -0.05373477 0.075017326 -0.22814107 -0.0075211576 -1.8980844 0.6641369 0.60496455 0.29732752 0.43757308 0.033511464 0.9369545 -1.3419278 -0.19978763 1.0624807 0.3686664 -0.022670306 0.6050061 -0.0711737 0.35314852 0.38383332 0.74499404 0.58113205 -0.12738088 -0.3362603 -0.8328832 0.89427334 0.013726179 0.47074783 -0.26360983 0.7536109 -0.08562911 -0.24917512 0.109314196 -0.047375306 0.38271993 0.19871418 0.25125557 -0.7572615 -0.091466196 0.17688654 0.049639225 0.17606796 -0.6435014 -0.024971 -0.06474271 -0.3495993 -0.42271623 -0.30642927 -0.42288935 0.008064588 -0.5977237 0.0020332923 0.1049525 -0.5644886 0.7046864 -0.17507936 -1.4731671 0.02514951 -0.6409746 0.3199493 -0.25787306 -0.10335112 0.68597484 0.040910877 -0.68707293 -0.061848745 0.16933684 0.7000104 -1.1816572 0.15875636 -0.26521674 -0.9770228 -0.40288654 0.21209773 -1.0033919 -0.19406539 -0.59478456 0.52977717 0.5045698 0.46485394 1.0135378 -0.34863567 0.43445992 -0.38532236 0.86758864 -0.09119988 0.36712977 -0.316998 0.16890882 -0.59900314 0.28632373 0.45899796 -0.21489447 -0.343045 0.2736767 0.19414441 0.30202606 -0.504752 -0.27719533 -0.20937166 0.1328438 0.169692 -0.1000441 1.0106888 0.56130505 -0.59289205 0.38548568 0.15113246 -0.07100199 -0.94052243 0.94794387 0.8020159 -0.0262039 0.014598086 -0.17478213 0.34406465 0.63582325 -0.31364402 -0.2824787 -0.5779107 -0.29486635 -1.0587151 0.23973472 1.1624087 -0.35084772 0.20462799 0.8599811 0.7822846 0.9766238 -0.089089006 0.34501946 -0.45851606 -0.70003265 -0.15007608 -0.47163367 0.49125957 0.63702154 0.9713326 -0.20548806 -0.31817672 0.41790438 -0.57210714 0.11307748 -0.33176526 -0.6623734 0.4057762 0.09419519 0.4007215 0.4288608 0.990156 -0.044789065 0.6732986 0.3103783 1.3917018 0.34497222 -0.32585615 0.0015184113 -0.901227 0.15422726 -0.1294848 1.3313777 -0.08646309 0.28797674 -0.433863 -0.2990865 0.66458195 -1.4205673 -0.053583942 0.32663333 -0.121326275 -1.3210175 -0.69002473 0.20661558 -0.33816904 0.89756477 -0.17594635 -1.2597237 0.9803997 0.01906503 -1.2425923 0.3104999 0.50495625 0.35567433 0.24961892 -0.16102445 -0.4361437 0.4656829 0.74365664 -0.6769793 -0.48512632 0.6192683 -0.108850434 0.7202594 0.5710813 0.45961723 -0.49513265 -1.2301023 0.103663795 -1.2137073 0.44625768 -0.98031527 -0.584353 0.10625403 0.078901544 0.7506294 0.46646455 -0.507634 0.6362819 -0.6054759 -0.650891 -0.12080235 0.85066146 -0.7804592 -1.1555644 1.1881784 -0.23287477 -0.24458112 -0.82986903 0.28727597 -0.4412206 -0.6149883 0.09483107
43 -0.62017536 0.21233727 0.27437595 0.45439765 0.7924524 0.19479106 0.6855844 -0.99427825 0.29161432 1.8012437 0.89247835 -0.6317696 -1.8043755 2.483473 0.34648138 -1.8956618 -0.3362105 0.13700299 -0.31194884 -1.4779252 -1.0931084 0.5962187 0.3333546 -0.22193448 -1.5277461 0.32905844 -0.072958045 -0.279934 1.2226142 -1.292811 -0.6339477 -1.4470366 -1.595093 -1.7204045 -1.4350116 -0.03340928 0.81561536 -0.90349793 0.0567404 -1.2433771 0.34063685 -0.36021867 0.4912162 1.1929666 1.6946303 1.2466216 -0.317973 -1.1315275 2.1304994 0.73856825 0.30174538 0.15097481 -1.3500923 0.11173208 0.14987072 0.5102566 0.80117154 0.4744787 0.1886996 -1.2422671 0.4621695 0.22913422 -0.033121184 -1.5878738 1.6069005 -0.20022745 0.24222118 -1.4573684 -0.65923756 0.089371376 0.8282843 -1.1524291 -0.64169794 -0.30698735 -0.79112667 -0.42683738 0.09832779 0.31063277 -0.22289573 0.8829955 -0.17740199 1.3624015 0.055941727 -0.64858747 -1.0203212 -0.53090066 -1.0194148 -0.7338502 -0.9416582 -1.043851 0.57226706 -0.6764677 0.10711327 0.13587427 -0.7435224 0.30298242 0.2135412 -0.7082443 0.24278872 -0.492507 -0.22157574 1.0723836 0.8784088 0.6348658 1.293367 0.18486673 0.12675647 0.21189918 -0.84560627 -0.97034675 -0.82891685 -0.750274 -2.9958766 1.2523966 -0.5729187 0.49423763 0.73987484 0.8230248 -0.20261388 -1.0641023 0.19941661 -1.8708178 -0.35192955 0.47137251 0.51648426 -1.0815649 -0.62423474 0.96448207 -0.6791602 0.043691643 0.92206895 0.14303443 1.3726614 0.94713086 -1.0829251 -0.20407574 -1.5350336 -1.0884384 0.8523803 0.19453277 0.6483717 -0.5409185 0.2948326 -1.5672784 1.5414541 0.7979122 -0.28295484 -0.71380377 1.635891 -0.5227496 -0.6813203 -2.1373968 1.6262211 -0.67621547 -0.15206534 0.5305213 0.8840119 -0.43429333 -0.40112484 1.7326401 0.9933804 1.1627067 -1.9739428 1.1467974 0.12888217 -1.0992732 -2.0652199 -0.7125902 0.40449765 -0.96388423 -0.19878718 -0.5830676 1.7657312 -0.115848094 0.08252514 -0.46269172 0.060390975 -0.52350515 -0.30550948 -0.05200394 -1.3467082 0.8241417 0.5912864 -0.42295876 0.82540774 -0.19539395 -0.14999783 -0.6035314 -0.6192551 1.4787545 -0.38416937 0.09785847 0.09704701 -1.4752336 0.9021227 -0.73505664 1.4863353 -0.8172839 -0.033003196 -0.56105167 1.8263689 0.9738165 -0.16111448 0.7922026 1.3414366 -0.15884158 0.3816866 1.0070075 0.29453492 0.4451154 -1.7267267 1.0561198 0.4654341 -0.43037325 1.1611855 -2.4661155 -0.26447976 -0.27025807 1.310592 -2.603922 0.31509376 0.561041 -1.9699856 0.3842974 0.9815264 0.83139694 -0.93173295 0.4636105 0.6428658 0.13081098 0.47857246 1.7726834 1.4124379 0.66557294 0.23142351 -0.12755175 1.5537546 -0.36568075 -0.43007943 2.2011693 -0.3777863 0.16627622 -1.747964 0.28217825 -1.3815905 0.34225968 1.9810442 -0.033019878 1.5757498 -0.23077725 0.49767503 1.125827 -0.6899745 -0.31953 0.43996453 1.4973187 -1.7795309 1.9200456 -0.32014382 -1.2986101 -0.74627167 -1.4518087 -0.32838178 0.18889332 0.16563426 -1.5626148 0.061610587 -0.9374856 -1.263304 0.78170574 1.5387496 -1.1733361 0.6464506 -1.3486321 0.09004456 -0.213203 0.620251 1.0064439 1.0075135 -0.82655346 0.59211177 1.0612559 0.929235 -0.26679692 -1.051661 -1.333339 0.5099663 -0.62423295 -0.15985772 0.12004058 1.13787 -0.4133152 0.2585858 -1.1407026 -0.23926084 -0.8775146 0.2679691 1.2060056 -0.1336316 2.1633952
180 0.75861794 0.35189047 0.068085015 -0.21169463 -0.68783915 0.057644732 0.7805898 0.617029 -0.011756099 -0.043068618 -0.39200947 0.41179 -0.7954164 -0.12777343 -0.18606775 -0.680043 0.63521355 1.0499221 -0.37342295 -0.41310936 0.16608791 -0.09711069 -0.28242055 0.23789757 -0.091770776 -0.22967076 -0.53533965 0.10328685 -1.2223485 -0.74151415 -0.10568252 -0.61040866 -0.8435186 0.63645077 -0.48977557 -0.03339749 -0.32192418 -0.32223457 0.39368466 1.1622428 -0.5072863 -0.2984572 -0.35961547 0.5676968 0.4930807 0.31914103 -0.24237056 0.3747901 -0.8726318 0.34332466 0.24804635 -0.082477756 -0.4355116 0.023570709 0.29602042 0.7521236 0.10846221 -0.730612 0.4340355 -0.018143654 -0.023545582 -0.56717336 0.30751577 0.002660852 -0.6824933 -0.1940636 -0.11348211 0.60656977 0.10382311 -0.7917232 0.26309368 0.59930295 0.7716995 0.8359862 -0.39365876 0.4784983 0.3835338 0.23674579 1.1460034 0.04862055 0.61842626 0.18271236 0.031969633 -0.15834224 -0.0313081 0.38118243 0.44938275 0.45185882 0.028676942 -0.08194293 0.6085423 0.10486681 0.28094614 -0.13800341 0.2522097 0.08384426 -0.05944381 0.27487978 0.121160895 -0.5267479 0.4464316 0.1731125 0.27064312 0.30915862 -0.41531986 -0.7251764 0.11204723 0.14968869 0.018365918 0.051664956 0.35014597 0.2279414 -0.6046633 0.08218393 0.014068792 0.30112982 -0.46483076 -0.8260218 0.45919874 0.5443755 0.029064242 0.5992625 -0.5628879 0.6636825 -0.77019995 -0.6248197 0.008748562 -0.72405636 0.23200452 -0.0077274633 0.33725893 0.24172676 -0.60909194 -0.80192417 -0.08470793 -0.38896075 0.040090133 -0.23875949 -0.24858488 -0.08339173 0.30889818 -0.112378374 -0.5814149 -1.5079412 0.08598795 -0.13910227 -0.059524797 -0.42655388 -0.10080634 -0.28374177 0.17106786 0.65078384 -0.47208756 -0.5057782 0.27693936 -0.15991127 -0.17480399 0.28761238 -0.3924685 -0.2640409 -0.30530417 -0.962877 -0.3144298 -0.16941273 0.06474715 -0.1107389 -0.36516696 -0.32014456 0.77940434 -0.5398539 0.31943518 0.08159195 -0.3543762 0.26369327 0.36563188 -0.14812101 -0.054302454 0.7110133 -0.2674908 1.0813838 -0.08632387 0.5282569 0.66035855 0.56718856 0.2576914 -0.2628584 0.30046242 0.7566535 -0.18854636 -0.6378083 0.12206634 -0.79764736 0.0490438 -0.4446731 0.577397 0.8411232 -0.4613134 0.18604027 0.14879322 -0.21108294 0.59846216 0.48772088 0.24607922 -0.32350305 -0.34067625 -0.077228814 -0.03927082 0.5249181 -0.33762816 0.11035498 0.093549974 0.6392002 0.08185279 -0.4247731 -0.17339674 -0.010795902 0.19855951 0.17318186 -0.47650602 -0.3059432 0.13156341 0.8136379 -0.4950607 -0.38266918 0.7664413 -0.510869 0.09429279 -0.30911493 0.25918597 -0.6285202 0.095295206 -0.10677564 -0.24055448 0.107758 0.16280212 -0.076332234 0.10600248 0.28120217 0.4184077 -0.4352374 -0.040991854 0.041648194 0.21312796 -0.34785637 -0.5213388 -0.5289649 0.7018464 0.10162631 -0.22184269 0.02183906 0.31926623 -0.7948441 0.2903149 -0.7833736 0.06978451 -0.50840294 -0.42006692 -0.7549616 0.537262 -0.18315654 0.035422035 0.5314938 -0.0585172 -0.1801168 -0.2001326 -0.3002194 -0.35748017 -0.054468974 -0.033572696 -0.3131299 0.90149486 0.4779817 0.086525254 -0.12120871 -0.58726555 -0.49707222 -0.60426193 -0.5946024 0.7689475 -0.0006206962 0.8178828 -0.656934 0.035241377 -0.14848745 -0.24133101 -0.122205965 -0.62891966 -0.07153834 0.6873167 0.3409825 -0.5026654 -0.3079385 -0.5845132 -0.2179875 0.86077625 -0.23891102 -0.7046283 -0.41576135 1.1452696 0.13709454
56 1.8377893 1.0746703 -0.67346334 1.6694903 0.13365571 0.6848956 -0.1503896 0.16826344 -0.6392602 1.0180857 0.8616149 0.6895388 -0.25711054 -0.14214328 -0.044832557 -0.47859722 -0.63344896 0.45871574 0.747115 0.99605966 -0.33398667 1.5290611 0.5091131 0.43553272 -1.5366819 0.3438376 0.3939042 0.48729715 0.1260695 -0.70729357 -0.38410163 -0.9692669 0.76131004 -1.5289193 0.15857297 0.6891231 0.54996103 -0.2388184 -0.33209053 0.2684209 -0.649189 0.22586903 -0.19616958 -0.3192615 -0.5691796 0.4346357 0.83512145 0.4586912 0.5103814 -0.05002683 0.13530801 -0.3255505 -0.46414164 0.6970133 0.75202024 -0.24927084 -0.045578945 0.08501517 1.2174777 -0.18906283 0.4407843 -0.24969973 0.23273212 -1.2379276 0.1030434 0.78213257 -1.674117 -0.3369595 1.1109276 -0.44579953 -0.71087813 0.48937142 -0.13123666 -0.756594 -0.14221832 -0.101854414 -0.6399578 -0.17815118 -0.40395814 -0.43895066 -0.2076463 0.049674008 -0.80425584 -0.13606626 0.4623749 -1.2092929 -0.3120637 -0.2259021 -0.4097263 -1.907862 0.07040636 -0.122139245 0.6013883 -0.6190373 0.10882256 0.30090582 0.39636472 0.09084278 0.23259598 0.24021439 0.09369357 0.18832 -0.7726168 -1.0505902 0.14479193 -0.28923815 -1.0460016 1.454264 0.35126278 -0.985153 -0.07141402 -2.3099947 0.26291975 0.19830091 1.2751422 0.67992276 -0.43559855 1.2616072 -0.87770647 0.7109773 -0.71191466 0.9047664 1.0687945 1.455699 0.48852986 0.4167125 -0.7319578 -1.4927802 0.45492634 -0.20170557 0.55497515 -0.41105676 -0.14073282 0.71921885 -0.5348896 0.65988517 -0.56163794 -1.2597692 -0.678783 0.3155713 -0.068307824 -0.7163251 -0.031674594 0.7282351 -0.5312971 0.013843421 -1.757445 -0.9510513 -0.16414507 -1.2088196 1.20931 -0.35413104 0.6663181 -1.4741976 -0.28880537 0.18512793 -0.35003814 -0.08531083 0.40890235 -1.1836156 0.6120848 -0.23201457 0.23399816 -0.36587983 -0.009281329 -1.4725163 -0.7333993 -1.0135956 -0.13081333 -0.49798417 -0.38574502 -0.0061667175 0.1749861 -0.21762517 -0.10794152 0.35020465 -0.63654584 -0.05054625 0.7678346 0.46830696 -0.15284577 1.3019563 0.21730717 -0.26263627 0.36701062 -0.10434214 0.0335264 0.4328462 0.06668263 0.68714905 0.79425377 0.07859256 0.106059656 -0.61899203 -0.7276437 0.27803525 -0.16018653 -0.52255726 0.32315567 0.052805744 -0.14735408 0.662265 0.46826932 -0.62050754 0.030112244 0.45404166 -0.68167496 0.8717624 -0.98341626 -1.0341091 0.4142167 -0.5584328 0.77498966 0.2854061 -0.5108687 0.16800722 -0.8774621 0.51104003 -1.1656544 -0.047882482 -0.98161536 -0.3288733 0.013290361 0.40869763 0.39446998 0.46379173 -0.36585337 -0.428184 0.22962642 0.5949065 0.023502404 0.14235212 0.19731039 0.40912342 0.14496088 -0.7783959 -0.75535935 0.8632971 0.4691322 -0.8295566 0.5597281 0.2848973 -0.16363968 0.59288377 -0.42848688 0.49157023 -0.2515968 0.69031286 -0.26114753 0.6327929 0.90918475 -0.48784164 -0.50133276 0.37136897 -0.5888426 1.2377656 -1.7306613 0.09912969 0.8591412 1.5363214 -0.39457777 0.038196556 -0.31105927 -1.0235626 0.9897871 -1.5969195 -0.115035266 0.608986 -0.0004680438 -0.2892165 0.053217214 0.70156497 -1.3327929 -0.4312405 -0.5637821 -0.9581226 0.4601776 -0.8009294 -0.206086 0.36787447 -0.9640564 -1.2509305 1.2962679 -0.60144717 0.26014644 -0.7767863 0.5924782 -1.0964253 -0.25613397 0.60315937 -1.786373 0.67087346 -0.44403023 0.37883434 -0.35573366 -1.0922974 0.37400332 0.14805824 -0.11971166 -0.7204715
108 -0.04811572 0.44803426 -0.03901829 -0.328461 -0.23425627 0.8181607 -0.08357678 0.81950766 0.014546721 0.6797577 0.0031864177 -0.020309059 -0.8479458 -0.44458684 0.36666888 -0.7126164 0.4259163 0.39446476 -1.1750156 -0.43189287 0.26578727 1.1606078 0.84147906 -0.4727454 -0.34624812 -0.70399666 -0.9402881 -1.1018695 -0.32556787 -1.3019989 -0.3200931 0.6425566 -0.33902213 -0.4610004 -0.029223122 -0.67136097 -0.14813387 -0.095041 -0.23055387 -1.0465986 0.26446703 0.77183545 -0.0349462 0.6556686 -0.562773 0.10151816 0.30391032 0.58145666 -0.13785754 -0.34680757 0.62955374 -0.67200494 0.31963238 0.017571868 0.79063535 0.4840511 -0.40201128 0.33634388 -0.410268 0.0010973113 -0.07009811 -0.09516201 0.32932374 -0.6201532 -0.07460142 0.06886882 -1.950138 -0.9152388 1.0213418 0.62204826 0.020783907 0.026994204 -0.57462573 -0.65065104 0.6050191 -0.043084875 0.62291807 0.37336966 0.5581527 -0.44424707 -0.13310902 -0.5610945 0.47373328 0.68652284 0.18489484 1.2161711 1.8233025 -0.15647024 0.8932202 -0.60343874 0.37139416 0.44003695 0.05164646 -1.1909198 -0.5447369 -0.08371553 0.016007222 -0.9253761 -0.34815928 0.05825996 0.24743807 0.30450574 -0.28607795 0.7704167 0.116816506 -0.8004615 -0.053186 -0.1842543 -0.010358401 0.6106754 -0.8215604 -0.92961794 -0.07846995 0.41371822 0.34035322 -0.124911465 0.32113656 -0.34867775 0.05787435 -0.49345005 -0.63665867 0.89371705 -0.42018366 1.1781818 0.9242708 -0.43465322 -0.36322546 0.8010111 -0.2849132 -0.09804493 -0.77697814 -0.9898607 -0.20988901 -0.9485261 -1.4992279 0.062087376 -0.78539026 -0.977874 0.63243747 -0.7259417 -0.2627022 -0.03829483 -0.541606 0.79580927 0.12506725 -0.33113313 -0.35790816 0.7560256 -0.10014311 -0.2744632 -0.03557078 -0.52758795 -0.27028814 0.35174856 0.52258605 0.35387316 -0.24955063 1.0070767 -0.12060729 -0.5375119 0.9269964 -1.4043392 0.3020747 0.115350135 -0.80292666 -0.123402834 0.014685857 -0.16784453 -0.3726884 -0.030258307 0.41353616 -0.2726028 0.36066547 0.24324454 0.3323113 -0.52125174 0.032765634 0.08782394 0.5134351 0.9044435 -0.9344306 0.6340935 -0.35118347 -0.6855387 1.1516116 -0.21018879 0.5422264 -0.11785375 0.009134631 -0.6647855 0.14330068 0.24297759 -0.6051736 -0.265897 0.24399032 0.38025102 0.4489978 -0.7958357 -0.22378035 -1.3847669 -0.20045675 0.8869802 0.53546894 -0.08750902 -0.5760261 0.21886624 0.50378233 -0.9173998 0.7193983 -0.80390656 -0.019079177 -0.5709775 -0.37858325 -1.2019132 -0.62476534 0.2956157 0.2588483 -0.8297031 0.35650492 -0.20368011 0.325701 0.023830192 -0.6008209 -0.25598675 0.19824603 -0.047838468 1.3269502 -0.31039327 0.11264317 -0.07616847 -0.22082447 0.8401188 -0.31450343 0.51353794 0.53918505 -0.8842562 -0.18909106 -1.1441232 0.50590926 -1.1075661 0.9790747 -0.40492842 -0.07783917 -0.4312444 -0.40431055 -0.21512322 0.56043017 0.08387985 -0.4171482 0.4940727 1.4299225 -0.65814906 0.5887933 -0.6906786 -0.8743244 1.1472912 -0.020248836 -1.0200754 0.36733228 -0.5140766 0.32399583 0.67232686 -0.38878924 -0.4038473 -0.19180034 -0.7513667 -0.027060203 -0.30893585 -0.025247974 0.67803454 -0.2370235 -0.30653498 1.4878982 -0.9214472 0.1409848 0.21230476 -1.9948708 -0.99781597 -0.52031004 1.4303094 -0.020434063 -0.41241983 0.3279315 0.1461135 -0.2885092 0.36033666 0.28605074 -0.5447201 -0.55168813 0.34647402 -0.5772988 0.80081016 -0.7122685 -1.8163483 -0.40419668 -0.6925411 0.26696968 -0.64130276 0.32945582 -0.29308966
50 -1.5799133 -1.1349295 -1.0360708 0.1466574 1.6464651 0.05313688 -1.0603307 -1.2267039 0.39137745 -0.7931546 -0.6028218 0.92278546 0.8550189 -0.16347508 1.6004325 1.7920961 0.109918155 -0.6491224 -0.39203668 1.2649487 0.13576151 0.036322866 0.1625169 -0.17222528 1.6871583 1.5258583 1.1984732 -0.75374526 -1.0020982 1.4579444 -2.4012868 -1.0160578 0.79193544 1.5961641 -0.38644704 1.1446142 -0.9438451 -0.44815847 -0.6390576 1.2036188 0.7737285 1.1846061 1.7406449 0.21454908 0.12270846 1.6656173 -0.70140415 1.096331 -0.6240203 -0.02842471 -2.0374537 -0.5913093 -0.8452669 -0.014060217 0.528466 0.6509721 0.36567593 -0.29488003 -1.0926335 0.5172378 1.0151185 -0.3395938 1.2234129 0.47928873 0.18815996 0.90781236 1.58295 -0.19581355 -0.84573394 -0.22613537 -1.823388 0.17691709 -0.19979563 0.094385915 -0.0832734 0.87631416 0.018300096 -0.08452909 -0.08538424 -0.0065154065 -0.57959956 2.1271605 -0.04729653 -1.0078065 -0.34645116 -0.10822198 0.89363295 -1.2229481 -0.060481954 1.9428314 -0.47507292 -1.4629564 -0.339222 -0.8738602 -0.3386382 -0.5480254 0.5403079 0.89289683 -2.1029625 1.0813543 -2.3429906 -0.9435669 -0.26194745 -0.41568628 -0.57839483 0.68344104 0.0024978071 0.2555019 1.895924 2.003654 0.1472566 2.7016246 0.41384792 -0.81422555 -1.8668586 1.1485809 -0.3321822 -0.031482928 0.3183398 0.34185004 0.73984164 -0.44493556 -0.6024667 -1.8450109 -0.03956461 1.5025357 0.5691495 0.022600148 -0.3232738 -0.09164465 0.22250083 0.37999794 -1.276679 0.6145365 -0.012007347 0.25546053 0.2033501 0.99210376 0.29312178 0.5058261 0.04163626 -1.4802608 -0.6675025 -1.6994355 0.21381558 -0.2852728 1.6287235 0.03521315 -0.6427988 0.099919505 -0.60731506 0.3301297 -0.19177449 -0.07313821 -1.1681513 0.3614378 -0.30375072 -0.6473343 -1.8560127 -0.04167874 0.03823073 1.4459422 0.30263653 0.19469948 0.04605229 1.0116302 0.38758832 0.10643047 0.35647535 0.13158746 -1.1238301 -0.2335975 -0.18411061 -0.6422524 -0.76843446 -0.1471135 1.0178224 -0.7701747 0.021684768 0.5103553 0.6200723 -1.5156543 -0.6054496 -0.14342235 -0.8478067 0.21259685 -1.3032889 1.270347 -0.5944391 -0.40940455 -0.3020457 0.11107992 -0.085243605 -0.42891386 0.62208045 1.2993771 -1.0744509 0.5919106 -0.045171276 -1.4522969 0.5160939 -2.0251493 0.35633725 0.32497668 -0.93657404 -0.33686018 0.34342945 -0.85435975 -0.07657538 1.3544558 2.8874853 0.114697635 -0.15453151 -1.4964641 0.6331723 -0.43380523 0.23926377 -1.0431082 0.7451981 0.26303998 0.018675275 -0.44906414 2.2322917 -1.5295899 -0.49064773 -0.11233866 1.4770211 2.753776 -0.82166356 -0.34920526 -0.26392323 -0.015703779 -0.5205379 -0.40462178 -0.98250777 1.7122598 -0.9589418 0.3239287 -0.4546057 1.0034063 -0.29473817 -0.16322884 -2.0036225 -0.55452627 0.11868125 0.15313523 -1.9757756 -0.82015705 -0.7467128 0.7129278 0.05159069 0.16880956 0.82673335 0.8791953 -0.15788732 -1.4117752 1.2086371 1.1525058 0.9269499 -0.15374382 0.9644553 -0.123026595 -0.127082 -0.69684666 -1.2264007 2.5427518 0.34327072 -0.8770705 0.86830133 0.44137082 -1.1948802 -0.7984694 0.7618803 -0.22521454 0.358693 0.94040287 0.968158 -0.67412597 1.0569885 -1.0830388 -2.7021723 0.17065185 -0.5710499 -0.606193 1.9535222 0.85067284 -0.38411576 2.1401286 -1.0215666 -0.7126931 1.4836806 0.46719262 0.95327 0.1312881 -0.005147967 3.3981535 1.3801605 0.30628926 1.2527456 0.43159956
12 0.75527096 1.0040534 1.0117134 0.745189 -0.08151658 0.46544608 0.2008638 1.0327061 -0.5167909 0.6508974 2.1005013 0.6012258 -0.34579706 -0.48949724 -1.1181561 -0.94960743 -0.08449611 0.13868347 0.50172126 -0.6467373 -0.03709298 0.8192955 0.07891763 0.18296015 0.068903245 0.4076941 0.13348755 -0.32208857 0.059481964 -1.6714228 0.2693683 0.327604 0.25962964 0.12436555 -0.42248076 -0.6412275 0.2659955 0.18724583 -0.7407261 -0.01344204 -0.07974464 1.2276402 -0.40215117 -0.06930448 -0.9986557 -0.45615914 0.49846146 -0.28637946 -0.123668216 -0.40998065 1.4564272 -0.81409985 -0.16920646 0.8014087 -0.14680049 -0.13908578 0.519708 0.61416554 1.1245894 -0.1620185 0.120151065 -0.037118696 -0.20470384 -0.55249053 -0.46029368 0.4676329 -1.309181 -0.17301124 0.14350677 0.59187657 0.12177266 -0.33380294 -0.13689587 -0.7914921 -0.41948134 -0.06155677 -0.9158608 -0.068274 -1.1551785 -0.027921 -0.007326278 -1.440331 -0.6982636 0.30580297 -0.16411419 -0.09066038 -0.26749182 0.05404161 -0.67350453 -0.09133646 1.2284771 -0.29314116 0.6483016 0.012448449 -0.32369357 -0.8402908 0.6748527 -0.29038373 0.29816398 0.08778889 0.29576376 0.02210235 -1.0910623 -0.0653055 -1.0502449 -0.4351032 0.3537013 -0.126017 0.13666175 -0.8214684 -0.2547966 -1.2283621 0.9964283 0.4095139 1.2094345 -0.40483066 -0.1635463 0.4900292 -0.7186313 -0.21066064 -0.90752745 0.5010318 0.28792125 0.8809181 0.13065201 -0.79632294 0.4910346 -0.45072076 0.46478042 -0.44310755 0.15967837 -0.3491348 0.6050064 -0.28505832 -0.410382 -0.13890082 0.0067039374 -0.7593792 -0.48522317 0.09583711 -0.19612412 -0.37274706 -0.042727325 0.92091894 -0.521324 -0.39297765 -1.3809118 0.41856542 0.5746978 -0.623664 0.7332001 0.27664253 0.39811286 -0.27647427 0.6975425 0.5891792 0.0136777675 0.41977197 0.76389855 -0.7970857 0.2047423 -1.4752012 -0.049892437 -0.5843234 0.106553234 -0.07768169 0.38688388 -0.8957369 -0.16830176 -0.25148052 -0.41974396 -0.3289199 -0.057556566 -0.3434206 0.9593506 0.46236184 -0.8415872 0.6201013 -0.21779066 1.2567303 0.39994785 0.6165525 0.8757778 -0.32270476 0.6828067 -0.15747944 0.3557664 0.51299596 0.57750994 0.5190667 -0.23840149 0.051049642 -0.44899032 0.18244225 -0.31732762 0.2749578 -1.2953069 0.07838654 0.08092807 -0.4901675 -1.1429816 -1.0484519 1.7526993 0.18047415 -0.39799494 0.3582304 -0.18036611 0.13398646 -0.04226831 -0.25598705 0.2111657 0.1394208 -0.7924161 -1.200256 0.17127588 -0.37252808 -0.06978226 -0.18383989 0.83115286 -0.58232313 0.389104 -1.0020114 0.152914 0.23751445 -0.21685632 0.6335201 -0.14153852 0.4692904 0.30857334 -0.018596552 -0.41398796 0.17684068 -0.16703549 0.71464413 0.6439165 -0.404029 0.19387528 -0.073678456 -0.24726222 -1.4527054 0.52255154 -0.24905798 -0.41703185 0.604028 0.65634006 0.16444504 -0.43664238 -0.103470415 -0.13962872 0.7131395 0.9294556 0.0011670605 -0.1162807 0.76420075 -0.37530872 1.037808 -0.14077769 -0.05798116 0.85369617 0.5494901 -0.09483657 1.0524155 -0.78813374 -0.4547749 0.48219255 -1.7051378 0.06399278 0.4249208 0.5870139 -0.053369183 -0.9631841 1.5930742 0.030956462 -0.12958549 0.895836 -0.7821356 -0.5447973 -0.932063 -0.8592809 1.3622236 0.07623053 -0.15541998 -0.16251896 -0.6475548 0.7321012 0.36798427 -0.5656007 -1.2168674 -0.5707536 1.2278655 -1.0866147 0.393076 -0.2712616 -0.20157182 0.24521665 -1.4193405 0.78084886 -0.04531676 -0.5151787 0.31749916
129 -1.0265728 -1.8060014 0.5304969 -1.8842365 -0.07507904 1.5288339 -1.3101089 -0.040250834 -0.3545877 0.35162914 0.10952412 0.37013632 -0.09935377 0.951886 1.0969694 -0.3397269 0.14981224 -0.73729986 -0.8907014 -0.54057604 -0.28310212 2.432709 0.38444257 0.6391318 -0.8244386 -0.4502232 0.2627185 0.43051073 0.31877804 -1.2991921 -1.9910878 -0.020283433 -0.30400875 0.6639874 0.95671016 -0.2856035 1.125512 -0.33906564 -0.62213665 0.42100087 0.76364356 -0.34379214 2.5867605 0.8141491 0.1430791 -0.16583005 -0.31097603 0.5699083 1.3885705 -0.9757309 0.0433289 0.018106392 -0.3586413 -0.6453976 1.634745 0.74304295 0.10959062 0.5658443 -2.1158013 0.9892809 0.79898757 0.46858236 1.2611804 -0.21995156 0.38832128 0.13546015 -0.73137146 -0.40192106 -0.5047544 0.9388163 -0.6734533 -0.36976412 0.18085088 -2.3472908 1.0217313 -0.77834225 1.2909355 -0.42789045 0.58775026 1.4592464 -0.008223144 1.4526561 1.5979512 0.7500608 -1.4425253 -0.2689076 -0.39312893 1.3901532 1.0185025 0.29316702 -0.16164564 0.21117981 0.8329964 -1.3736714 -0.62898195 -0.028517898 -0.52412343 -1.6484804 -1.7303759 -0.46737835 -0.95084995 0.25658444 -0.15551007 -0.50406516 0.72857034 -0.47992334 0.30766705 0.31071693 0.29236495 0.55660325 -1.776607 0.59779686 -0.45782343 -0.32297015 -0.37220392 0.6028714 -0.53302395 -0.5162821 -0.32397753 -0.46358973 0.5676616 0.9593714 -0.13840845 -0.539954 0.84893596 -0.20690061 1.0142549 0.28137377 -0.7744844 0.77909565 -0.8160441 0.8002278 0.13821328 -0.45074818 -0.12120845 0.30236167 -0.6288049 0.35786438 2.1578653 -0.2136703 -0.15083227 0.39494264 0.7796888 0.073925726 0.23595561 0.49019578 -1.0238125 1.7085291 0.34797043 0.821847 0.40008056 -0.72089314 0.09104006 1.3923272 -0.42239293 0.3104564 0.14065285 -0.8754616 0.40219793 0.59378165 0.12859921 0.22317365 -1.5516824 -0.08566919 0.09498674 0.3790912 -0.2837347 -0.34248492 0.024423199 0.37889472 -0.7786536 0.15480746 0.29108796 0.8222681 -0.025360962 -0.6152779 0.3991461 0.20640309 0.18607357 -1.5732479 -0.54480594 -1.359244 -0.7167179 0.036895905 -0.67664725 -0.9714135 -0.6919274 0.7262236 -0.78694963 -0.0073440503 0.37800047 0.5638805 -0.35992303 -0.0038683244 -0.1465764 0.65650266 0.06708434 -0.7498167 0.52369016 0.03318027 -0.53874856 -0.7939107 0.64265424 0.09356856 0.94386566 0.26293263 0.43503368 -0.28047195 -0.70727843 -0.17458735 1.4057322 -0.7823557 -0.37339637 -0.08655254 -0.86838925 0.043734904 1.1027266 -2.246743 0.46564934 0.7031434 -0.30266732 1.1203004 1.5633752 -1.2123159 0.48901325 0.5357617 1.1261382 -0.23427482 0.2571188 -0.46401542 -1.6029134 -1.0923297 -1.3702399 0.47637928 0.89745516 -0.029781785 -1.368287 -0.65410674 -0.45028952 0.2587656 0.67771995 -1.2130381 0.32044947 -0.8928846 -0.7606587 -0.56173235 0.7994632 -0.18927854 -0.5772845 0.9756154 0.23678102 0.83815867 0.54836375 1.1647367 0.21146446 0.3977479 -0.86073774 -0.5983104 0.19176129 -0.3659361 0.16746773 -0.27524093 0.92634255 -0.076548636 -0.55323416 -0.552779 -0.24123521 -0.19475168 -1.5438559 -1.3849772 0.26615837 0.598762 0.9426989 -0.96353334 1.7662175 0.36637393 -0.22678445 0.48113322 1.8976774 -0.7371171 -0.6680688 -0.043669004 0.08 -1.1157957 0.65555084 0.4939856 0.66837656 2.095026 0.26865795 -0.21036752 -0.22399004 0.40235075 -1.259339 0.07403277 -0.55348533 1.1424131 -2.1024404 0.5204967 -0.06857248 -0.55852586
66 -0.060966965 -0.534303 0.61513907 0.015915303 -0.2578916 0.13761611 0.5537519 0.15845433 0.3983149 0.19272974 0.97072196 -0.29871866 -0.14820276 -0.22699064 0.17212759 -0.58987325 0.5104208 0.43502638 0.15271421 -0.12112551 0.390713 0.27271095 -0.089206345 -0.27043673 0.79053855 -0.6858273 0.11819654 0.44157475 -0.5190224 -0.8146569 0.009102701 -0.2813693 -0.0670287 -0.038314164 -0.04252928 -0.58734226 0.43561488 -0.10357345 0.12445405 -0.34801662 -0.37343255 -0.12608348 -0.82529855 0.4340602 -0.5601489 -0.70720977 -0.32704288 -0.59361196 -0.28345802 -0.33540618 0.36190823 0.5681068 -0.25947702 -0.08892112 -0.06936498 0.23880105 -0.2798998 -0.014680583 0.7334411 0.1894944 -0.43494108 0.5620249 -0.14503531 -0.13034736 -0.30848297 0.25350094 0.119390145 -0.13651012 -0.51079947 -0.2831202 0.36603075 0.57632107 -0.18624628 -0.16595542 0.2147788 0.12932791 0.023400255 0.2523265 0.49276537 -0.57693595 0.3469125 -0.77465224 0.34726992 -0.13122042 0.08395849 0.22101821 0.18953873 -0.0040855394 -0.06255666 -0.09862734 -0.66629404 0.6901747 -0.3209592 0.12457104 0.22003292 -0.24088886 0.098804384 -0.11275054 0.7220026 -0.6164287 1.1644068 -0.21066907 0.6077073 0.529437 -0.3216557 -0.19277084 0.093119 -0.098719835 -0.23526753 -0.23991147 0.3268438 0.34269655 -0.18994473 0.07009765 0.54381907 0.35067073 0.29464328 -1.0419708 0.7883938 0.33348998 0.13268882 0.46302643 -0.21268529 -0.1296501 -0.40544814 -0.41242015 -0.1171108 -0.46275333 0.28968057 -0.0514955 0.3912603 0.4318146 -0.06256545 -0.59867465 -0.5595844 -0.23109081 -0.09505027 -0.03906208 0.8830012 -0.29344174 0.080958664 -0.48665902 -0.18324476 0.048805576 0.18295914 -0.010225129 -0.40688497 -0.40385652 0.11754171 -0.07282313 -0.6108475 1.0805473 -0.21196026 0.19086081 0.6105754 -0.5049156 -0.1513382 0.5083817 0.15511782 0.6414606 -0.046783052 -0.4346051 -0.002058279 0.22708601 0.067501344 0.7839809 0.34959376 0.010368596 0.13222276 -0.7001388 0.65252644 0.6339937 -0.29251724 0.46948355 -0.4014922 0.30747506 0.25889012 0.76483375 -0.38213032 0.029146697 0.16824771 0.013405783 0.29503515 -0.6755793 -0.7688432 -0.3482366 0.17855191 -0.33188298 0.3097299 -0.07009432 0.29931316 -0.60924006 -0.16826925 0.104234874 0.29720655 0.3063523 1.0358981 0.48237404 -0.9278127 0.42951337 0.28571475 0.7829899 0.7343422 0.28240195 -0.06508259 0.1455286 0.33266324 -0.047761887 -0.027024772 -0.42291355 -0.43343183 0.10297095 -0.04523839 -0.003938095 -0.39798865 0.7181552 -0.644511 0.43547946 -0.55758536 0.2605211 -0.23628268 -0.67180353 0.1874986 -0.7681282 0.5366873 -0.4022838 -0.5157175 -0.80742323 -0.087176174 -0.27869266 -0.45484817 -0.037693016 -0.19163352 0.6963538 0.6128609 0.24022551 0.56163794 0.7731324 0.016254237 -0.44593653 0.23662813 0.49491563 0.59205484 0.13796814 -0.3762485 -0.53042424 0.061966356 0.68184435 0.37611756 0.3629393 -0.032954507 -1.1444942 -0.08827072 0.010231311 0.22995137 -0.6319069 0.49110004 -0.83183736 0.29208747 0.10500241 -0.43569142 0.6883359 0.067061946 0.3867268 -0.02262101 -0.648754 0.4709877 -0.26414022 -0.081612624 0.017537134 0.954199 -0.3248881 -0.06708164 -0.60721135 -0.3137066 0.19580007 -0.19343649 -0.34618542 0.14055482 0.25687218 0.5047211 0.3115976 0.42691147 -0.43913808 -0.025305476 -0.44603786 -0.4088528 -0.001990878 -0.28422797 0.074929304 -0.9032502 -0.5115251 -1.0913967 -0.686632 0.7529917 -0.797334 -0.4137878 -0.73207176 0.52652395 0.8465283
110 1.3221941 -0.19668925 -0.58251315 0.67721653 -0.5909512 -0.7964992 -0.4328596 0.2784044 -1.2282999 0.22575937 0.24935889 -0.0965491 0.04060688 -0.37036562 0.7897489 0.10780814 0.26622266 0.5918286 0.6356263 0.2660369 0.033783626 0.2875773 1.1786373 1.1195273 0.16298772 -0.68513143 -0.21014585 -0.19260208 0.37403533 0.6034813 -0.5250193 0.9080903 -0.6044242 0.8201595 -0.84671086 -0.1407553 0.009643052 -0.6448226 -0.7811695 -0.45961577 -0.21671435 0.62315035 0.39263096 0.46273366 -1.0436579 -0.24976055 0.090648934 -0.55968285 -0.062930815 -0.1740183 0.5971212 0.032523975 -0.58284914 -0.4926856 -0.84256065 -0.036117084 -0.23908319 -0.002805955 0.23286697 -0.09497949 1.0149025 0.3945902 -0.10154658 0.20599037 0.46848837 -0.62298346 0.17437321 -0.21787445 0.6996422 0.010865945 0.9338804 0.5946622 0.008051165 -0.074731596 0.30847362 -0.3863407 0.79001033 0.0912966 -0.17363513 0.22354157 0.5383282 0.08833362 0.6132846 0.09392967 -0.13601878 0.7682511 -1.2818099 0.28484845 -0.015692985 -0.4291663 -0.025771355 -0.031468004 -0.44695094 -0.082519695 0.7532877 0.6191412 -0.01421491 -0.6969338 0.1705843 -0.80870986 0.64077 0.7318092 0.92125434 0.57004344 -0.69751847 0.20527403 0.5642431 -0.32076818 -0.4562093 1.099408 0.5118952 -0.7398559 0.14492442 0.77720493 0.5289318 -0.051420484 -0.48589873 -0.5230356 -0.09984917 -0.38530532 -0.49798727 -0.3405373 0.44222936 -0.27060324 0.5603516 -0.61364275 -0.12343634 0.57012 -1.1011171 -0.25802457 -0.6807852 -0.11270804 0.1854586 -0.20038344 -0.7256695 -0.94169277 -0.25139722 -0.28128275 -0.43005013 -0.11269654 -0.24838792 -0.59930927 0.55080056 0.3206894 0.58848876 -0.7120927 0.67804766 0.08143676 0.65196097 0.4249297 0.16187735 -0.03542867 0.19328429 0.41334295 -0.124530144 -0.07061603 -0.25993994 0.97758335 -0.42169008 -0.8074255 0.3858307 -0.12024076 -0.38180253 -1.1640712 0.31572473 -0.06526193 0.19838999 -1.249327 0.10988979 0.36730334 0.11100219 0.21623011 -0.00720067 0.16049203 -0.23017873 0.11952373 0.5741495 -1.2741784 -0.55535907 -0.53794926 -0.8557146 -0.84473366 0.45199883 1.1190441 0.76415473 -0.77842224 0.35217696 0.3010948 -0.20536895 0.2098504 0.023983818 0.84633946 0.48222998 0.048838142 0.08750088 -0.22702369 0.24476235 -0.3538968 0.17047715 -0.17896724 -0.65863895 -0.32789686 -0.6457526 -0.38231295 -0.67078894 -0.6372078 -0.23632038 0.505591 0.7660795 -0.5467752 -0.09095165 0.21585603 -0.17508565 0.4807322 0.29049549 0.11891342 0.7046573 -0.7779617 -0.35901955 -0.43153295 -0.7053086 0.66718155 -0.38500914 0.67838633 -0.34616718 -0.52477795 0.6809073 -0.48933217 -0.25054562 -0.44048497 -1.2761141 -0.43570992 -0.11612202 0.270998 1.1639305 0.021713903 -0.43806365 -0.3065341 0.2805357 0.34361923 0.19383793 -0.24986352 -0.3941592 0.39654583 0.3119139 -0.12933414 1.0807953 0.58018225 0.43998763 0.7101359 1.0559264 0.057801623 0.32650143 -0.080287494 -0.43092388 -0.34598762 -1.2693917 0.3511017 -0.3474829 -1.1477855 0.26119447 -0.06274733 -0.84451425 -0.18658733 -0.33748886 -0.9427093 -0.2690855 0.30219343 -1.0205417 0.039626956 -1.1460763 -0.07935806 0.2757369 -0.5323414 0.28319404 -0.11724376 -0.03847275 0.40323684 -0.26792347 -0.04253422 -0.2756621 -0.14712773 0.41751817 0.27650362 0.5131425 -0.92381763 0.13685225 -0.19317864 0.68308985 -0.05952926 0.48176023 0.27980748 -0.42541093 0.7739269 -0.08987726 0.107631855 -0.6379122 0.6314757 0.72023034 0.15219529
202 -1.4308517 -2.8868797 -0.33513469 -0.71924394 -0.03404594 1.2940855 -1.2858355 0.17293504 0.3858245 -0.23310073 0.9340822 0.84186834 0.6608916 0.3046559 1.3825861 -0.11963996 0.2764137 -1.1819191 0.26861578 1.8537999 -0.10832389 1.6985215 1.0416886 -0.087263115 -0.27694097 0.15864848 1.5037501 0.42061594 -0.47777665 -1.4161485 -3.5018423 -1.7839556 1.1453658 1.3192812 0.1965325 0.84937346 0.8096517 0.47269812 -0.24437918 0.6764973 1.734798 -0.22105639 1.9185894 0.95921725 -0.21729597 0.08046176 -0.22298998 0.67653054 0.88690805 0.0482967 -0.78656214 -1.122139 -1.7954232 -0.68399316 0.4050325 0.0970147 0.9621585 1.2638966 -2.5813408 2.227883 0.03301836 0.12328482 1.7997969 1.0701658 0.37983835 0.3805737 -0.43462867 0.5836641 -1.9478451 1.8585718 -1.7922539 0.31024113 -0.29811043 -2.592932 1.5828815 -0.7622194 0.62234557 -0.41982412 0.46321088 0.84943426 -0.30485392 0.75511044 0.41030118 1.5741434 -1.5879804 -1.115427 -1.6720227 1.1607455 0.45015565 0.4122212 -0.2945542 -0.17981105 1.7936878 -0.25667572 -0.2506136 -1.1466475 0.32022512 -0.6823044 -2.8689358 -1.1447284 -0.8372096 0.11206536 -0.46621084 -0.056735307 0.0734065 0.15447485 0.85251045 0.07927288 1.4901193 1.2071527 -1.9043882 0.8454722 -0.3469849 -1.3373313 -0.81359375 0.02280114 -1.15136 -0.46238393 0.44811252 0.17373925 1.862679 0.8133445 -0.5754028 -1.1021135 0.055949613 -0.3352175 1.3821851 0.08571875 -1.0276463 1.2255343 -0.7569427 1.1233699 0.47974145 -0.053070236 -0.64605457 -0.3147565 -1.0372752 1.3539064 1.7270223 -0.19327447 -0.030765131 -0.242954 -0.05642284 -0.5467444 0.6779961 -0.1291369 -1.181327 1.9557316 0.7986621 0.7034743 -0.20698817 0.16645278 -0.18872826 0.7618042 -0.7784951 0.1542093 -0.10857895 -1.380131 -0.9310845 0.05683725 -0.30129305 0.46506688 0.037240412 -0.16617423 -0.105690904 -0.069285154 -0.5952261 -0.29633436 -0.23551807 1.0500306 -1.5071079 0.39261076 0.69867045 0.10817908 -0.3100553 0.30544618 0.11789164 -0.380089 0.5128984 -1.1170443 0.45608878 -1.6269519 -1.1696862 0.30699494 -1.7618369 -1.2017406 -1.3229039 1.1551492 -1.9256861 1.0190485 0.75087595 1.1799216 0.10035334 -0.14004293 -0.9044617 0.46994463 -1.5027298 -1.1420506 0.23201892 -0.57631963 -1.479646 -2.0479658 0.63741565 -0.2723239 1.6689985 0.25242737 0.7036173 -0.82401776 -0.3040111 0.19216843 2.5930252 -1.6768858 -0.89055336 -0.25903964 -0.5372726 0.7209567 0.21481279 -2.7256298 1.0677515 -0.45089382 -0.19973263 0.6339544 3.1125743 -1.5849297 0.6755095 1.372671 0.32880002 -0.5112316 0.83553237 -0.23261808 -0.5751895 -0.42490837 -0.4014052 0.022713602 1.4767715 0.28192464 -1.4010295 -0.76309997 -0.976859 -0.43413985 -0.3988512 -1.7332047 0.44221228 -1.1060861 -0.066451736 -1.7667903 -0.63959074 0.5937525 -0.041255806 1.4526967 -1.0799361 0.9012614 1.8925726 1.4303865 -0.657325 -0.8254329 -0.49714968 0.48922044 0.7560086 -0.15903266 0.34483626 -0.2456068 0.30909753 -1.505478 -1.1760938 0.20130374 1.0088067 -0.68055856 -0.55887157 -1.5382204 -0.6688419 0.30906785 -0.06528472 0.1123366 1.2436118 1.2934574 0.34847108 0.38565296 2.4895835 -1.6897312 -2.6123686 0.87994224 -0.31243843 -0.5502488 0.78696555 1.2017937 0.6206532 1.8593589 -1.0118092 -1.2040951 -0.70127434 1.2276554 -0.2461077 0.14682893 -0.13111743 1.1667457 -2.4357224 0.7383923 0.368546 -0.11848113
142 0.48409075 0.92927015 -0.54133034 -0.1860099 0.3583478 -0.5732349 -0.022859745 -0.09547872 0.3931975 -0.20490167 0.24840556 -1.3776697 0.5121305 -0.12162923 -0.5842601 0.6205342 -0.06638211 0.105525434 -0.41496944 -0.54191 1.3223829 -0.34852245 -0.12100547 0.09546287 0.5687062 0.018641828 -0.9629294 0.33110633 0.052137252 -0.32726163 -0.35373124 1.1649268 0.5991687 -0.32493487 -0.3359963 -1.0400472 -0.0918149 0.42447603 -0.5599008 -0.3605034 -0.5296756 -0.52681124 -0.18093307 -0.10626577 0.06307356 0.8450781 0.5230077 -0.0074330536 -0.32745317 -0.42140314 -0.048359707 -0.07275652 -0.038453728 0.20740294 -0.08436669 0.06613052 -0.15985572 -1.2277862 -0.1490435 1.6165329 -0.36477003 -0.23597138 -0.7001792 0.21845292 -0.47196227 0.19708553 -0.3415309 -0.43684345 0.29142103 -0.28386977 -0.114879124 -0.4792486 -0.110667646 1.0994986 0.45692918 -0.1129735 1.2478435 0.16912395 0.095990725 -0.38026512 -0.06571433 0.5551669 -0.7512001 -0.027039414 0.20660642 0.14832874 -0.62977296 1.4954127 -0.4037388 -0.32478222 -0.12505382 0.3531831 0.5254049 -0.031937867 0.5960345 1.1061138 -0.21971811 1.010402 0.732348 0.31137908 -0.51618093 -0.0998871 0.39804375 0.64359355 0.14741421 0.33925417 -0.106951974 -0.019165372 -0.16174178 0.08593756 -0.07253061 0.7253577 0.7421095 0.43844485 0.488417 -0.037964135 0.36577368 0.4863327 0.71783346 -0.36896378 -0.5222561 -0.4353034 1.2093023 0.45286074 -0.34824893 -0.25439218 -0.21068373 0.16697136 -0.20002028 0.14352283 0.027331738 -0.15641645 0.64853495 0.10541433 -0.6113801 -0.4785412 -0.088490695 0.81315184 0.06363369 -0.38057432 0.7311558 -0.15075903 -0.29102734 -0.3368946 0.072642624 0.26345387 -1.1726754 -0.2650988 -0.7408664 -0.17915432 0.35846707 0.6315506 -0.38549843 0.3796732 0.08747987 0.76941377 0.5317391 -0.13947435 0.62121 0.005257696 -0.5944067 -0.042713605 0.18541284 0.024972763 0.09344461 0.35467565 0.05029559 -0.024694733 -0.89973414 0.6823008 -0.4225781 0.1232498 0.32952318 0.48789972 0.21308124 -0.49099723 -0.11497062 -0.15305325 0.9858653 -0.14596057 0.07152032 -0.014259832 -0.124857925 0.20446886 0.114373595 0.2795781 -0.07691923 -0.6190381 0.80515987 -0.21150553 0.046615925 -0.14034666 -0.5607362 -0.44068074 0.9333553 -0.8831651 0.5853362 -0.6943306 -0.057866916 -0.18437326 0.23101367 0.9213503 0.07361883 -0.23404603 -0.049041845 0.39372683 0.5796067 -0.025377901 0.50742906 0.30336925 -0.8600162 0.12375819 0.61570776 0.51887274 0.17436084 0.25171813 -0.34999254 0.18503575 -0.5600786 1.3028634 -0.31089675 -0.22015965 -0.8994455 -1.0789006 -0.033485647 -0.12609346 0.6136164 0.3035312 -0.009157492 0.8904382 -0.6667367 0.3058141 -0.29171187 0.3435978 -0.19373947 -0.7032998 0.006409617 0.760957 0.15985091 -0.18355913 0.89183795 -0.12781018 0.46491557 0.5182585 -0.42441794 -0.5076345 1.0217596 -0.41489813 -1.0083663 0.0025310945 0.20589198 -0.36360067 0.50728446 -0.119686075 -0.7732899 0.37258458 0.38870373 -0.66743404 0.23995298 1.0818335 -0.01398689 1.0764651 -0.42962754 0.39917302 0.51682085 1.2176093 -0.55092216 -0.8125368 -0.116277374 -0.094029464 0.73251206 -0.08702415 0.17442578 -0.52878606 -0.66668427 -0.28821903 -0.7464638 0.006367676 -0.76686406 -0.3312877 0.20734707 -0.6848754 0.33922896 -0.17418762 0.019104552 -0.22557914 -0.5395823 -0.050597798 1.2982135 0.5253284 -0.12557375 -0.023474969 0.77425337 -0.07109514 -0.16789375 -0.18524437 0.2287102 -0.43350428 -1.0161622 0.39728633
163 0.65963334 -0.25652218 0.027718753 0.3693386 -0.35892895 0.5677361 0.24703343 -0.076830156 -1.0153844 0.1718864 -0.48466298 -0.47452208 0.82413465 0.34951422 -0.12720188 -0.78781927 0.1605576 -0.5579426 -0.35778034 0.4789966 -0.26159158 -0.27641994 0.15345152 0.5384318 -0.7560183 0.28584737 -0.99799997 0.7445593 -0.21550892 -0.8020231 0.68327284 0.941684 -0.43941218 0.39028963 -0.5635318 -0.59944063 0.008579723 -0.38800645 1.1263115 0.114380725 -0.06133676 0.28805926 -0.7144187 0.48690864 -0.4063237 -0.17968994 -0.4406394 0.09661754 -0.022335967 0.076725826 0.33430344 -0.028465115 -0.582996 -0.17710875 -0.3474347 0.76876503 -0.14436814 0.86232156 -0.10107537 0.69116724 -0.39472878 0.3567525 -0.067887336 0.51856184 -0.31353232 0.5220385 -1.081553 0.77332246 0.06595991 0.3184986 0.033926405 -0.47271574 -0.13800444 -0.3050992 0.4836149 -0.15480752 0.033159375 -0.93557256 0.6687498 -0.91255546 0.19188671 -0.2926395 -0.17731182 -0.019097526 1.2433752 -0.4026669 0.29470512 0.17386435 0.14098626 -0.6073693 -0.4417088 0.5246312 0.09657119 0.07410783 0.45426762 1.4872135 0.5108504 0.01415638 -0.06425169 0.07229777 0.33640602 -0.07342777 -0.09218233 0.1432925 -0.41969222 -0.63208413 -0.569718 0.37418553 -0.9324743 0.069299474 0.097285904 -0.45120415 -0.42356044 -0.16418849 0.0719915 -0.22960961 -0.43912584 -0.06306092 -0.07027819 0.50801224 -0.36105183 -0.13950264 0.81453216 0.7935713 0.5969778 0.029649403 -0.897907 0.16296816 0.8945166 1.0165884 0.07705176 -0.44755048 -0.06099639 -0.22039609 0.14419666 0.41527194 0.22934961 -0.554889 0.34137946 -0.36935875 0.5360134 -0.46988162 -0.0039917296 0.32468104 0.11456287 0.69645053 -0.27953407 0.51718384 -0.06800402 -0.712805 0.013292755 -0.08040305 -0.47213134 -0.8567141 -0.0051069655 1.2196089 0.38820282 -0.26126504 0.56602097 -0.7122135 0.1782511 0.12739205 0.67127734 0.6394023 0.24747251 0.20561032 0.29516524 0.62464476 -0.20670651 0.12532628 0.11923027 0.005409705 0.08144159 0.2374049 -0.39951766 -0.114879146 -0.71321577 0.22186397 0.08795672 0.2180052 -0.13831578 -0.05129711 -0.13193293 -0.36264545 -0.18552864 -0.41557887 0.09527765 -0.4271465 -0.29501992 0.5063158 -0.20727336 -0.33991867 0.6500546 -0.08174787 0.16528153 -0.34582666 0.15213571 -0.72118354 0.026039338 0.073999844 0.6587117 0.26634666 -0.6720524 -0.16393176 0.23980136 0.24779242 -0.06140744 -0.15646507 0.02947942 -0.4660558 -0.2846989 -0.4274776 -0.04543295 0.8812228 -1.0214874 0.5531856 -0.24739964 0.20439383 -0.26052627 0.19257255 0.49978825 0.3432283 -0.3904496 0.36517736 0.19073513 -0.004194142 -0.87519926 -0.8494282 -0.22504735 0.84692127 -0.15961231 0.5048591 0.1196042 0.05183056 0.6684882 -1.3835942 0.37319207 0.14918098 0.24844952 0.7539912 0.95756716 0.13199717 -0.33520573 -0.53677326 -0.6504113 -0.16612905 -0.20477124 -0.45186353 1.2733673 0.35635653 -0.14404655 -0.023319298 0.14374578 -0.24227196 -0.27798852 -0.5506791 -0.4720521 -0.4083819 -0.52928764 -1.8084158 -0.10961522 -0.09719006 -0.17541072 -1.2248284 -0.6699634 0.077991 -0.10516298 -0.41948754 -0.121902235 0.06769638 0.26332724 0.27143097 -0.67007434 0.2950796 -0.49910086 -0.46031544 -0.20852669 0.37800002 0.1401714 0.18673478 0.5087739 -0.26047516 0.53183794 -0.24928111 0.4838868 -0.51698965 0.80857325 -0.2439839 -0.3286699 -0.049434766 -0.25140926 -0.1379764 0.17842999 0.1554619 0.4565118 0.16543184 -0.6077943 -0.34296048 -0.26479518 -0.13246895
165 1.1077079 0.46910775 -0.6451471 -0.48836875 0.6789169 -0.029064156 0.2896668 0.36085376 0.045286022 -0.6003345 0.5348438 -0.6950083 -0.22295748 -0.17751244 -0.55437416 0.03301905 -0.07500233 -0.3562862 -0.35832882 -0.447397 -0.089827284 0.58703685 -0.14397041 -0.19115171 -0.4133592 -0.67162484 -0.40575916 -0.1299349 0.2221057 -0.9653246 0.20505942 0.6031047 -0.2533501 -0.39072472 0.3044368 -0.4519031 -0.039143328 0.6261255 0.6814034 0.008503689 -0.06625935 -0.15451142 -0.5918091 0.52368075 -0.12525125 -0.5382947 0.5768927 -0.45471904 0.65443856 0.49514657 0.3311802 0.02239327 0.4670127 0.31709978 0.7111234 -0.094106935 0.05682148 0.18561627 -0.56015307 0.7269276 0.033581242 -0.34445903 -1.202408 -1.1384635 -0.1744592 0.57343465 -0.37608233 0.47734606 -0.2665173 0.26308945 0.18249448 -0.096847884 -0.06584163 -0.55103093 0.5916155 0.046456825 -0.41918942 -0.28305697 0.3394036 -0.26228204 -0.23439793 -0.2291819 0.2014438 0.015807314 0.0939144 0.8983352 0.49574587 0.68101436 -0.333744 -0.40998632 -0.16243286 0.396363 0.7481491 -0.08370279 -0.003972601 0.40254942 0.32113877 0.15315472 0.12334241 -0.1792951 0.39876294 0.17627294 0.13538918 0.42736116 -0.064915985 -0.18918435 -0.21494417 -1.0154485 -0.2210462 -0.8251271 0.05297915 -0.6834067 -0.34414375 -0.68740404 -0.13932896 0.02531822 -0.35057026 0.42087418 0.4181818 -0.35762978 -0.37950808 0.20259835 -0.6215251 0.4941833 -0.06474839 0.94988334 -0.036529183 0.1334688 0.27378654 -0.6274005 0.41825032 0.46778876 -0.26643124 -0.5229519 -0.15016975 -0.3387108 -0.22715844 -0.07691559 -0.093391374 -0.40343723 0.03963751 0.4237135 -0.3132294 -0.21126199 0.63258815 0.10508447 -0.38791236 0.5276644 0.101905644 -0.20026962 -0.54680246 0.5383 0.09682143 0.06606253 0.7322618 0.14331228 -0.15743211 0.16396473 0.3741986 -0.3691142 -0.24670348 -0.4629608 0.4576021 0.27738428 -0.12658262 0.2885597 0.30439284 -0.5509923 -0.27221453 -0.17256148 -0.40330246 -0.08531924 -0.16134268 -0.2625815 0.27297637 0.65047574 -1.0602025 0.6189172 0.25942096 -0.2960369 0.44288757 0.23835096 0.2296024 0.14925285 0.95084435 0.11355525 -0.18660222 -0.3983752 -0.12224753 -0.18469591 -0.35032362 0.19921446 -0.36366516 -0.034896445 0.3966048 -0.43994254 0.029243244 -0.42641088 0.27944925 0.55229723 0.09438538 0.4393143 0.58553517 -0.72660035 -0.10362673 0.0040877378 0.93205404 0.9585932 -0.08702602 -0.92836326 -0.099786885 -0.15722069 -0.09725167 -0.20201124 0.10841191 0.6174225 0.004204942 -0.11710589 0.060506035 -0.025808832 -0.095837645 0.8390434 0.605053 -0.76454496 -0.048754524 -0.31457576 -0.49201962 0.11479895 0.06935716 0.38202837 -0.49171177 0.49698743 -0.6381202 0.017248072 0.5559769 0.030400153 -0.018621396 0.1769244 0.23136905 -0.6570189 0.47139457 -0.4738021 0.565145 0.31837606 -0.2204744 -0.30263165 0.24758501 0.21978702 -0.1905291 0.4047102 -0.11370099 0.54568124 0.15598257 -0.8155911 0.5209487 -0.04195029 0.64983016 -0.560068 -0.05920749 0.026631586 -0.97710484 0.47861835 0.12872413 0.7638671 -0.087163515 -0.5615805 -0.8574866 -0.24932922 -0.541189 0.12835678 -0.22442487 0.2781733 0.32850483 -0.017654845 -0.4760045 -0.20073031 -0.7301401 -1.3567082 -0.25667915 -0.5764086 0.43470347 0.27974093 0.521395 0.3939376 -0.40007108 0.036822543 -0.113394745 -0.32454145 0.29550865 0.29802802 -0.964318 -0.99712026 -0.49622208 -0.07620961 -0.16610193 -1.0800383 -0.12051095 -0.15283664 -0.4036499 0.033616018
57 0.5171848 -1.1460708 0.014949436 0.30303186 -0.13967352 -1.2386508 -0.5504244 -0.54099727 0.30596223 0.1094048 0.016798766 0.23578958 0.13768217 -0.09864626 -0.6473832 -0.96243995 0.20509353 0.52371913 -0.7049096 -0.42994934 -0.2620694 -0.85918576 -0.19474442 0.5000379 0.15368895 -0.5255593 -0.87046325 -0.23874052 0.18078247 0.082821146 -0.70366174 0.024676887 0.5496733 0.48496723 -0.71251446 -0.683366 0.18948962 0.17070575 0.12281939 -0.019938283 -0.17648755 0.09702908 -0.97458917 -0.34146753 0.36463803 1.6189917 -0.012681728 0.44141772 0.46003407 -0.11784694 0.5798068 0.54401904 0.72467065 0.07291843 0.1726711 -0.5153767 -0.061125178 -0.34058845 0.48928657 -0.26050478 -0.5153915 0.047705926 0.3339665 0.3329121 -0.4027053 -0.11585871 0.5928396 -0.065247566 -0.57103693 -0.75461566 0.8208695 -0.32167128 0.42276084 0.88875073 -1.2146894 -0.18596625 -0.06286163 -0.5575442 0.09779904 -0.26752305 0.25913653 -0.058914203 -1.0756227 0.9566943 -0.57256794 -0.1537732 -1.0861466 0.7540941 0.37485072 0.35723165 -0.11013407 0.0937844 -0.41086128 0.9909352 -0.4536512 -0.16430286 -0.56541735 0.2938801 0.83034396 -0.37411132 0.2802034 0.124931 -0.7957835 -1.0824376 0.11607714 0.50853145 -0.41056073 0.75719345 -0.4730874 -0.30267897 -0.3752382 0.013117623 0.115952276 -0.2934266 1.1672403 -0.02576406 -0.18927659 -0.50149226 -0.36160913 0.5761742 -1.0751628 0.4718891 0.68349975 0.12878425 -0.2912242 -0.14267936 -0.09361624 -0.18283497 0.09762363 -0.024041153 1.0409366 -0.026982125 0.082040936 -0.5015454 -0.44343653 -0.44461396 -0.6966083 0.008078705 -0.7604245 0.16818012 -0.20195691 -0.44239157 -0.1465045 -0.9926656 0.4439845 0.014281285 -0.5006074 -0.0733747 -0.014290087 -0.31734952 -0.03965191 0.6049225 -0.69728404 0.19703116 0.18588011 0.46339005 0.1146238 0.3387014 0.62256336 1.0848825 -0.6615033 -0.18610087 0.545391 0.48395258 -0.070062764 1.3103298 0.9594336 -1.0095187 0.34946465 0.4644878 0.6870924 -0.4387996 0.27566096 0.023115346 0.32615286 0.5648013 -0.44389927 -0.6017273 0.7227257 0.12983783 0.9450374 -0.4484943 0.14198877 0.24915208 0.2756084 0.33062336 -0.5525597 -0.36228663 -0.35876098 0.76797104 -0.6665651 -0.3222937 0.08594312 0.5301325 -0.4370433 -0.47317618 -0.016229747 0.42640665 0.32587904 -0.668106 -0.35196453 -0.1095744 -0.20280212 0.17629631 0.27351326 0.5287378 -0.12128495 0.90420055 -0.53426415 0.35440412 0.026381476 -0.54499096 -0.4800515 1.2850248 -0.47141317 0.6962269 0.38091776 -0.3353008 0.003400065 -0.19931783 -0.5878382 -1.0816102 -1.0090344 -0.22585478 0.31961393 0.10106008 -0.7284373 -0.2266727 -0.024960341 -0.48116866 0.84951013 -0.6957079 -0.80636305 0.065337114 0.29055825 0.63965976 -0.19648024 -0.3219583 -0.6764499 0.22312388 0.22877744 0.40356895 0.17874682 -0.12883252 -1.0748388 0.24623102 0.3543584 0.14963135 -0.7750086 -0.40377262 0.6102466 0.56224364 -0.3002198 -0.055968538 0.21944796 0.042440526 0.17323473 0.9594981 0.52022886 -0.20820318 -0.44500574 0.30693614 0.16953766 -0.5431552 -0.03268923 -0.36392936 -0.8898809 -0.44725668 0.7657073 0.07125423 0.09157678 0.43676516 0.6826091 -0.28228962 -0.039436214 -0.6149185 -0.17024198 -0.0844859 0.04811906 -0.5397609 0.6812205 -0.07770173 -1.0447485 0.12491464 0.48799676 -0.46969548 -0.7951738 -0.8221572 -0.0015988834 -0.019057846 0.5202221 -0.020516453 0.1011061 0.8281525 0.8214981 -0.58576524 0.7169663 0.80421525 -0.37173384 0.35471886
